SVM-light Version V6.20
0 # kernel type
3 # kernel parameter -d 
1 # kernel parameter -g 
1 # kernel parameter -s 
1 # kernel parameter -r 
empty# kernel parameter -u 
9948 # highest feature index 
31 # number of training documents 
2 # number of support vectors plus 1 
0 # threshold b, each following line is a SV (starting with alpha*y)
1 1:-1.6334186 2:-1.5711639 3:-0.50138581 4:-0.96948391 5:-0.73575646 6:0.26458001 7:-0.33340883 8:-1.1140118 9:-1.421712 10:-0.87717223 11:-0.45414373 12:-0.83731294 13:-1.173577 14:-0.70294636 15:1.2845087 16:-0.22474392 17:-1.2901474 18:-1.5457973 19:-0.17793667 20:-0.93421316 21:-0.57075357 22:-0.682576 23:-0.51432419 24:-0.50259274 25:-1.0370766 26:1.9916717 27:-0.61187673 28:2.7139077 29:1.2819948 30:-1.2260132 31:1.8220817 32:-1.8301504 33:0.12866019 34:-0.79933047 35:-0.4481408 36:0.24645983 37:-0.47580332 38:-0.73811775 39:0.038454011 40:0.06763868 41:-0.57990563 42:-0.34469134 44:-0.032113507 45:-0.4446446 46:-0.96748435 47:-0.25008821 48:-0.91673827 49:0.054083746 50:-0.51724994 51:-0.55854917 52:-0.51102203 53:-1.3114082 54:-0.51928359 55:-0.48385766 56:-0.39979693 57:-0.35248151 58:-0.62880284 59:-0.45645973 60:2.5198336 61:-0.30846643 62:-0.80982214 63:0.086469375 64:2.8278565 65:0.061326589 67:1.0472435 68:0.5540837 69:-0.95429522 70:-0.32243606 71:-0.19082312 72:-0.34428456 73:-0.41669658 74:-0.28899753 75:-0.28197318 76:-0.47259885 77:-0.70215511 78:-0.044171453 79:-0.15580697 80:1.5380911 81:1.8483304 82:-0.92778432 83:-1.1643231 84:-0.043109614 85:-0.86985677 86:-0.55133325 87:-0.55196714 88:0.55146128 89:-0.096946873 90:-0.047550745 91:-0.71687186 92:0.080264322 93:-0.10515344 94:-0.44817358 95:-0.13395517 96:0.32118461 97:0.26905692 98:-0.19876938 99:-0.53789401 100:-0.26736149 101:-0.40124488 102:1.9458936 103:0.2103789 104:-0.48587295 105:-0.82165158 106:-0.60704404 107:0.30467537 108:-0.22323193 109:-0.30806479 110:0.094685532 111:-0.0055558346 112:-0.84994632 113:-0.13019265 114:-0.61995029 115:-0.35583138 116:-0.4800317 117:0.095203057 118:0.0039660172 119:-0.64002043 120:-0.60222036 121:0.046850856 122:-0.86515123 123:-0.18576534 124:-0.44873825 125:-0.20106272 126:0.048072219 127:-0.20825309 128:-0.040478677 129:-0.73193973 130:-0.19221376 131:-0.29103133 132:-0.2339569 133:-0.21006995 134:0.44633108 135:-0.33949453 136:-0.27168581 137:-0.51585501 138:0.031388588 139:-0.8366769 140:-0.48106247 141:-0.64919353 142:-1.4599867 143:-0.33148211 144:0.40716025 145:-0.34165493 146:-0.79719061 147:-0.089059055 148:-0.20667803 149:-0.48428512 150:0.58097029 151:0.028581765 153:0.72025597 154:-0.034474116 155:-0.061780423 156:-0.55185407 157:-0.36644521 158:0.7068153 159:0.60342211 160:-0.29400602 161:-0.068342894 162:-0.52633029 164:-0.29421082 165:0.28426224 166:-0.58286339 167:-0.17037708 168:-0.36705667 169:-1.2883255 170:0.033011962 171:-0.58367205 172:0.8796491 173:-0.57627767 174:1.1521294 175:-0.29681611 176:-0.096298821 177:0.065218575 178:0.41854286 179:1.0614057 180:1.4080831 181:-0.35275057 182:-0.49100038 183:0.08475443 184:-0.29376972 185:0.90024012 186:0.63315451 187:-0.29017666 188:-0.086620912 189:-0.063741893 190:-0.55455714 191:-0.043396495 192:0.43212897 193:-0.5825544 194:-0.67353767 195:-0.53445649 196:0.052645318 197:-0.1046027 198:0.23698075 199:-0.44494867 200:-0.42818487 201:-0.98593503 202:-0.79298317 203:-0.021332914 204:0.56121707 205:1.1891892 206:0.063112259 207:-0.24774607 208:-0.52544057 209:-0.22269407 210:-0.27526155 211:-0.34034759 212:-0.39967838 213:-0.35531104 214:-0.41938436 215:-0.35077652 216:-0.48489246 217:-0.38946104 218:-0.92327666 219:-0.38282996 220:0.44577226 221:-0.40230566 222:-0.49095452 223:-0.063087322 224:0.008897746 225:-0.39769277 226:0.10100936 227:-0.78390861 228:-1.1359776 229:1.5158755 230:-0.16482748 231:0.31302944 232:1.5297673 233:-0.71863705 234:-0.61505765 235:-0.50444913 236:-0.2660886 237:-0.076279715 238:-1.9447275 239:-0.13445053 240:0.17386387 241:-0.10910029 242:-0.16388609 243:0.072619624 244:-0.61322623 245:1.1482881 246:-0.33416593 247:-0.14466679 248:-0.057305854 249:-0.11180358 250:-0.097648323 251:0.028937876 252:0.42445406 253:-0.57325089 254:-0.45931035 255:0.74887961 256:-0.09413068 257:-0.11897585 258:-0.34660476 259:-0.2496154 260:-0.49035794 261:-0.65073013 262:0.04087304 263:-0.47916907 264:-0.15770635 265:0.19131176 266:-0.016370848 267:0.071223699 268:0.39065564 269:-0.13773964 270:-0.026876921 271:-0.43004248 272:0.20337428 273:-0.24456494 274:1.4947476 275:-0.36355796 276:0.19114213 277:0.070047013 278:-0.47304669 279:-0.026278853 280:-0.89583308 281:-0.35246667 282:-0.087106615 283:-0.65349376 284:-0.11918974 285:-0.17659478 286:-0.90534639 287:-0.43630108 288:0.23644909 289:-0.18411914 290:-0.25999215 291:-0.18014614 292:0.095980264 293:-0.57644641 294:-0.11392637 295:-0.11441047 296:-0.11786283 297:-0.47994301 298:-0.27765393 299:0.18589583 300:-0.49396372 301:0.034022268 302:-0.34000504 303:-0.38870385 304:-0.47363067 305:-0.21044892 306:-0.095564656 307:-0.12692373 308:1.3572057 309:0.0060755466 310:-0.17927206 311:-0.27192104 312:0.57651418 313:-0.64060587 314:-0.064649016 315:-0.34710181 316:-0.60645926 317:0.11770283 318:-1.0225633 319:0.27678865 320:-0.12341674 321:-0.082719989 322:0.79092324 323:-0.3697249 324:-0.36907688 325:0.26567137 326:-0.63192606 327:1.1074519 328:-0.16014856 329:0.040848978 330:-0.0037666061 331:-0.45083654 332:-0.32585844 333:-0.14137335 334:0.028953651 335:-0.32784563 336:-0.67723739 337:0.92047203 338:-0.63242012 339:-0.012892861 340:-0.067134909 341:-0.17870826 342:-0.4099707 343:-0.42602625 344:-0.52809232 345:0.93449169 346:0.78648329 347:0.25928417 348:-0.17428493 349:-0.22676057 350:-0.19789651 351:0.47652143 352:-0.31112382 353:-0.20042709 354:0.00055752188 355:0.36855125 356:-0.084604956 357:-0.21149695 358:-0.60471529 359:-0.54186583 360:0.018875411 361:0.18039587 362:-0.10049149 363:-0.16315866 364:-0.018044095 365:1.0664469 366:-0.067774057 367:-0.097221933 368:-0.098138355 369:-0.20732982 370:-0.41839412 371:-0.31594092 372:-0.47407797 373:0.4125312 374:0.10859812 375:-0.010069318 376:-0.34166628 377:0.26207015 378:-0.061281897 379:-0.85178989 380:-0.30504897 381:-0.64119053 382:-0.31095436 383:-0.76166296 384:0.072222322 385:-0.25224659 386:-0.31144536 387:0.7060622 388:-0.011178485 389:0.58532971 390:-0.2505528 391:-0.20990776 392:0.080619074 393:0.064134099 394:-0.21276556 395:-0.022432545 396:-0.068680465 397:-0.72243881 398:0.025860798 399:-0.24536003 400:-0.1664215 401:-1.4550112e-16 402:-0.15335418 403:-0.31577262 404:0.14962316 405:0.15020935 406:-0.70124161 407:-0.089874096 408:0.14261901 409:-0.47837612 410:-0.7063604 411:-0.3720769 412:-0.097002976 413:0.4566288 414:-0.16610025 415:0.13215962 416:-0.43560567 417:0.018642308 418:-0.020856468 419:-0.51393431 420:-0.66110051 421:-0.14867903 422:-0.27314612 423:-0.40767875 424:-0.44557089 425:-0.47284725 426:0.19448553 427:0.66005313 428:-0.39292312 429:-0.062701277 430:-0.1503401 431:-0.28794235 432:0.0042113359 433:-0.39064416 434:-0.073594823 435:-0.055728599 436:0.017357003 437:0.76107794 438:-0.37315938 439:-0.0076752775 440:-0.19859743 441:-0.37140355 442:-1.0114479 443:-0.22330251 444:0.17095667 445:-0.54209071 446:-0.039921883 447:-0.2297883 448:0.042492405 449:-0.13374843 450:-0.3602615 451:-0.034810022 452:-0.31431046 453:-0.27055669 454:-0.18619522 455:0.41381806 456:-0.57516664 457:0.17757748 458:0.0090895565 459:-0.19865508 460:-8.2765429e-17 461:-0.30709034 462:-0.33127514 463:-0.085481033 464:-0.1797197 465:-0.76106358 466:-0.099767141 467:0.71734327 468:-0.27129292 469:-0.16974904 470:-0.25411716 471:0.20956258 472:-0.32194275 473:0.28801721 474:-0.34369442 475:0.12684281 476:-0.39297923 477:0.29241365 478:0.18404242 479:-0.31291848 480:0.56104016 481:-0.067089051 482:-0.039659631 483:-0.30318254 484:-0.39662749 485:-0.27084476 486:-0.006023318 487:-0.62548459 488:-0.19633649 489:0.36729133 490:-0.30390787 491:-0.52043885 492:-0.22953792 493:0.091408566 494:-0.12466013 495:-0.12377854 496:0.32135165 497:-4.9767057e-17 498:0.23703007 499:0.12557051 500:0.1057648 501:-0.53342104 502:-0.25471407 503:-0.080251679 504:-0.17990254 505:0.28169376 506:-0.4269999 507:-0.14566942 508:-0.84418052 509:-0.14316112 510:0.11181106 511:-0.11457358 512:-0.046044737 513:0.56849849 514:-0.20005628 515:-0.12985148 516:-0.23019212 517:0.043139335 518:-0.06834764 519:-0.33146355 520:-0.282933 521:-0.3741332 522:-0.50131732 523:-0.36015674 524:-0.41975811 525:-0.020679561 526:0.016972085 527:0.30430689 528:-0.21014205 529:-0.17447518 530:0.2061279 531:0.41519746 532:-0.05213812 533:0.026405709 534:-1.0602127 535:0.40868253 536:0.015317206 537:-0.20748238 538:-0.27750126 539:0.64720023 540:0.02369629 541:-0.32567173 542:-0.14687991 543:0.24107842 544:-0.15685301 545:-0.036674794 546:-0.01042012 547:0.24633452 548:-0.51965684 549:0.18477719 550:-0.10963807 551:-0.23525095 553:0.82877588 554:-0.011227057 555:-0.17354126 556:-0.068022162 557:-0.087161407 558:-0.70453638 559:-0.45187405 560:0.07630676 561:0.31359848 562:-0.30701959 563:0.026680797 564:-0.050218344 565:0.30598289 566:-0.073030524 567:0.042794801 568:0.056992728 569:-0.11096069 570:-0.29538357 571:-0.11491709 572:-0.23497927 573:-0.057531718 574:0.5143972 575:0.096152969 576:-0.024648061 577:-0.16179912 578:-0.35166284 579:0.28109908 580:-0.10091411 581:-0.11486127 582:0.72470844 583:-0.12953068 584:-0.17945117 585:-0.14017677 586:0.36662725 587:1.0198112 588:-0.40340444 589:-0.56104469 590:-0.27657714 591:0.032540742 592:1.0087692 593:0.30019897 594:-0.28763372 595:-0.33238405 596:-0.22482872 597:0.02614722 598:-0.42134002 599:-0.55030841 600:0.19095124 601:-0.22577293 602:-0.10557806 603:-0.65617937 604:-0.024325499 605:-0.20570369 606:-0.1680575 607:-0.35239744 608:-0.05878133 609:-0.31123218 610:0.34401393 611:-0.18764523 612:-0.12680247 613:0.0048250663 614:-0.13855907 615:-0.021687912 616:-0.12621611 617:-0.4153879 618:-0.20679604 619:-0.061340161 620:-0.053849153 621:0.032054011 622:-0.16282767 623:-0.0089288391 624:0.009416596 625:0.098379888 626:0.11178608 627:0.016551841 628:0.0090626897 629:-0.035881225 630:-0.014934469 631:-0.64986253 632:-0.038693324 633:-0.12646161 634:-0.29511893 635:-0.096013531 636:-0.38222048 637:-5.1634943e-17 638:-0.24258283 639:-0.11901866 640:-0.60954154 641:0.56549019 643:0.52238864 644:0.011381608 645:-0.14369883 646:-0.44724721 647:-0.62103915 648:0.0048743915 649:-0.25289947 650:-0.082793646 651:-0.16635256 652:-0.14197145 653:-0.1661429 654:-0.023802748 655:-0.029628966 656:-0.14408275 657:-0.32113874 658:0.26296514 659:-0.014516377 660:-0.17144607 661:-0.2156297 662:0.035897475 663:-0.12948647 664:0.2178482 665:-0.11811387 666:-0.073825128 667:-0.10746313 668:-0.30995071 669:0.036238499 670:-0.04367099 671:-0.66565657 672:-0.17760804 673:-0.13766612 674:-0.45251015 675:-0.13494821 676:-0.10386605 677:0.0061269202 678:-0.19488938 679:-0.041211832 680:-0.054440662 681:-0.13911538 682:0.062870704 683:0.1025126 684:-0.63974535 685:0.26147386 686:0.080156423 687:0.028387202 688:-0.44756973 689:-0.50399905 690:-0.15091521 691:-0.14509781 692:-0.034299873 693:0.81297809 694:-0.16741434 695:0.063032985 696:0.12995879 697:0.15173735 698:-0.12254653 699:-0.046178319 700:-0.24175778 701:-0.17696893 702:-0.10712934 703:0.0075608613 704:-0.15683739 705:-0.32370597 706:0.080205917 707:-0.022809125 708:-0.03040088 709:0.34478113 710:-0.23208295 711:-0.11754888 712:-0.048264787 713:-0.21808298 714:-0.40437543 715:0.022372056 716:-0.51151586 717:0.21235316 718:0.026682984 719:0.68547463 720:-0.43439323 721:-0.078646265 722:-0.17857534 723:-0.1774397 724:-0.68251157 725:-0.01221263 726:0.27111238 727:-0.019032044 728:0.19981731 729:0.10059589 730:-0.090035051 731:0.25442648 732:0.026070423 733:0.23978381 734:-0.019149853 735:-0.11265373 736:-0.088078059 737:0.28465718 738:0.384334 739:-0.16343018 740:-0.0078190798 741:0.48731673 742:-0.12752055 743:0.039500751 744:0.039793648 745:-0.21439146 746:-0.10929365 747:-0.082031026 748:-0.1994338 749:0.38321257 750:-0.71195048 751:0.050097238 752:-0.13187063 753:-0.16967398 754:-0.22459266 755:-0.12921426 756:-0.012333675 757:0.43243971 758:-0.18173073 759:-0.012620527 760:-0.12902391 761:-0.0084457044 762:0.27487519 763:-0.026000468 764:0.16573039 765:-0.43145052 766:0.041730281 767:-0.29707044 768:0.21743193 769:-0.16780117 770:-0.086054437 771:-0.11983154 772:0.2942341 773:-0.28674629 774:-0.23641117 775:-0.30256039 776:0.11536434 777:-0.33756635 778:-0.23854667 779:-0.08294028 780:0.11704532 781:0.74482083 782:-0.32943892 783:-0.067508146 784:-0.092323646 785:-0.095383622 786:-0.27964646 787:-0.057212677 788:-0.05567212 789:0.026363982 790:-0.067682244 791:-0.066886202 792:0.017823983 793:-0.05490467 794:0.11743371 795:0.6029731 796:-0.10821833 797:0.11209703 798:-0.49071789 799:0.25201136 800:0.16105489 801:0.10082669 802:-0.050610442 803:0.010663295 804:0.93384522 805:-0.26062816 806:-0.20770808 807:-0.032714475 808:-0.28234243 809:-0.0071592899 810:-0.12567347 811:0.13964523 812:-0.29984304 813:0.099578284 814:-0.24756005 815:-0.24148136 816:-0.073233441 818:-0.35821879 819:-0.22331178 820:-0.24415158 821:0.24854638 822:0.13751262 823:0.30414373 824:0.16798326 825:-0.37431985 826:-0.36026028 827:0.30952382 828:-0.33270332 829:-0.26452917 830:-0.36955377 831:-0.025957227 832:-0.24244532 833:0.021862423 834:0.0059660412 835:-0.41569901 836:-0.069033712 837:-0.034566958 838:-0.05797682 839:0.088818155 840:0.063206755 841:0.084932379 842:0.10890938 843:-0.2633338 844:0.048076499 845:-0.11596366 846:-0.40922752 847:0.22726992 848:-0.25189272 849:-0.12055854 850:-0.085177645 851:-0.061347399 852:-0.57110131 853:-0.72139579 854:0.13889156 855:-0.11992656 856:-0.15603581 857:-0.044757202 858:0.21092826 859:-0.0043992396 860:0.086106494 861:-0.0068273921 862:-0.082948841 863:0.0060982439 864:-0.0091117723 865:-0.1491739 866:0.01341701 867:-0.31579348 868:0.066733889 869:-0.19560201 870:-0.13611725 871:-0.10475851 872:-0.0009971637 873:-0.51762784 874:-0.19264324 875:-0.32107639 876:0.051047739 877:-0.0057589374 880:0.52907389 881:-0.27089238 882:-0.23349646 883:0.098201409 884:0.084620178 885:0.14925423 886:0.11424131 887:-0.06677901 888:-0.15333585 890:-0.2290993 891:0.068592153 892:-0.21009959 893:0.20611538 894:-0.13623114 895:0.044173416 896:0.11954426 897:-0.047361691 899:-0.045746505 900:-0.18102135 902:0.038868606 903:0.2995519 904:-0.31169003 905:-0.17663479 906:-0.022593537 908:-0.17483628 909:-0.37276247 910:-0.067134269 911:-0.1525649 912:0.10643349 913:-0.12882362 914:-0.085489281 915:-0.17913316 916:0.32592887 917:-0.10958445 918:-0.023725357 919:-0.39843664 920:-0.12211061 921:-0.10786393 922:-0.72257996 923:-0.38293532 925:-0.061011419 926:0.042078365 927:-0.32229063 928:-4.2794957e-17 930:-0.45917857 931:0.1682107 932:-0.12771095 933:-0.12495898 934:-0.030866131 936:0.050523642 937:-0.0026149584 938:-0.54802817 939:0.072074868 940:0.0918964 941:-0.1946318 942:-0.11919719 943:-0.33713034 944:-0.020608287 945:-0.31522146 946:0.084785603 947:0.77722728 948:-0.21148875 949:-0.024366422 950:-0.39948303 951:-0.092682935 952:0.29521906 953:-0.07769338 954:-0.26408985 955:-0.41357589 956:0.14622229 957:-0.056743793 958:-0.11254795 959:-0.17475924 960:0.20099336 962:-0.068716995 963:0.033068225 964:-0.37646857 965:0.47170538 966:-0.20817155 967:-0.1064011 968:0.022786049 969:-0.024844576 970:-0.052819159 971:-0.29430068 972:-0.37487614 973:-0.27567407 974:-0.1111543 975:-0.076024644 976:0.014364969 977:-0.21098229 978:-0.28305301 979:0.6919775 981:-0.12440958 982:-0.084768921 984:-0.28899443 985:-0.099169865 986:-0.18292655 987:-0.42359978 988:-0.31435412 989:0.0038282298 990:-0.1208047 991:0.26243469 993:0.74937832 994:0.25285584 995:0.18673685 996:-0.069124363 997:0.118668 998:0.77705622 999:0.28089058 1000:-0.17492341 1001:0.282718 1002:-0.036300812 1003:-0.046436343 1004:-0.053686697 1005:0.45468491 1006:0.040821195 1007:0.063543186 1008:0.083644152 1009:0.13198742 1010:0.54224557 1011:-0.2689968 1012:0.007228855 1013:0.23271661 1014:0.36687422 1015:-0.14887002 1016:-0.11696664 1017:0.095682852 1018:0.19465211 1019:0.018239327 1020:-0.29370731 1021:-0.114043 1022:-0.28313598 1023:-0.035572153 1024:-0.4783375 1025:-0.49708349 1026:-0.12910528 1027:0.48993772 1028:0.060639758 1029:-0.1122668 1030:-0.16130348 1031:0.2786645 1032:-0.067688994 1033:0.37783012 1034:-0.031402271 1035:-0.039368268 1036:-0.26226249 1037:-0.052583955 1038:0.42339239 1039:-0.11888326 1040:-0.57264322 1041:-0.035764415 1042:-0.44597828 1043:0.084763981 1044:-0.23969111 1045:-0.57180816 1046:0.77352303 1047:0.32136479 1048:0.42701304 1049:0.098413728 1050:-0.21330748 1051:-6.5500164e-17 1052:0.039740145 1053:-0.12505729 1054:-0.24476135 1055:-0.18618199 1056:-0.28603053 1057:0.032235861 1058:-0.29493138 1059:-0.70564592 1060:-0.44186682 1061:-0.13718335 1062:-0.23825674 1063:-0.0070162015 1064:0.38853717 1065:-0.0086917859 1066:0.0092163524 1067:-0.31064931 1068:-0.28587484 1069:0.018243151 1070:-0.20703371 1071:-0.19027835 1072:-0.084126391 1073:-0.074369214 1074:0.22217064 1075:-0.47019196 1076:0.15209427 1077:-0.0135372 1078:0.017846597 1079:-0.48019096 1080:0.2828787 1081:-0.35210356 1082:0.016072907 1083:0.18627661 1084:-0.016461894 1085:-0.038989801 1086:-0.19042633 1087:-0.620915 1088:0.0032362966 1089:0.18889689 1090:-8.9042858e-18 1092:-0.076508753 1093:0.11051416 1094:0.33841914 1095:0.032116558 1096:-0.062211998 1097:0.11151449 1098:0.12792225 1099:-2.2553705e-17 1100:0.045686379 1101:-0.19987924 1102:-0.22354095 1103:-0.042357545 1104:-0.048679415 1105:-0.11877654 1106:-0.18312456 1107:-0.018510042 1109:-0.052324224 1110:-0.058358997 1111:0.11965612 1112:-0.0081365351 1113:-0.16736275 1114:0.015533763 1115:-0.023633985 1116:-0.060645957 1117:-0.25159985 1118:0.27930626 1119:-0.46303803 1120:-0.55931264 1121:-0.064087413 1122:0.12233227 1123:0.06148041 1124:0.03175493 1125:-0.21214758 1126:0.0012077456 1127:-0.26466316 1128:0.76503432 1129:0.23527762 1132:-0.091268472 1133:0.33820587 1134:0.35504872 1135:0.19809334 1136:-0.038743317 1137:-0.053547498 1138:-0.24697649 1139:-0.24809358 1140:-0.84317935 1141:0.11768916 1143:0.27191561 1144:-0.044630028 1145:-0.076082386 1146:-0.31494948 1148:-0.14726427 1149:0.041888911 1150:0.15022765 1151:-0.57321411 1153:-0.13627143 1154:0.42012677 1155:-0.044616364 1156:0.1363218 1157:-0.066767998 1159:0.14284942 1160:-0.4566431 1161:-0.038743317 1162:0.036021832 1164:0.072849207 1165:-0.0099160401 1166:-0.043401167 1167:-0.11349911 1168:0.082992189 1169:0.039216697 1170:-0.097750515 1171:0.29808477 1172:-0.38991064 1173:-0.19010031 1175:-0.19179156 1176:-0.14646865 1177:-0.25084823 1178:-0.075657912 1179:-0.16368568 1182:0.041350238 1183:-0.012184422 1184:-0.25238338 1185:0.084818549 1186:-0.073225953 1187:-0.073225953 1188:-0.17952716 1189:-0.010222355 1190:-0.025975328 1191:-0.47293493 1192:0.01657871 1193:-0.13094294 1194:-0.16535401 1195:0.025271235 1196:-0.17959528 1197:-0.0077905511 1198:-0.21870849 1199:-0.013998595 1200:-0.040402662 1201:0.1794721 1202:-0.11366297 1203:-0.070185781 1204:-0.18898751 1205:0.21888879 1206:-0.0023719012 1207:-0.16566339 1208:0.025298802 1209:-0.034047604 1210:0.27861351 1211:-0.23881011 1213:-0.2655727 1214:-0.072498128 1215:0.023791187 1216:-0.17241283 1218:-0.018230494 1223:0.4771392 1224:-4.0672074e-17 1225:-0.38235104 1226:-0.06232227 1227:-0.039549727 1228:0.4355782 1229:-0.024299134 1230:0.36889172 1231:0.072728112 1232:0.17761 1234:-0.17560932 1235:0.13341194 1236:-0.16015223 1237:0.075595118 1238:0.33413333 1239:-0.00026371994 1240:0.0070960522 1241:-0.19616283 1242:0.047066491 1243:0.013707138 1244:0.023036834 1245:0.10152116 1246:-0.14691295 1247:-0.053942479 1248:-0.15970817 1249:-0.026047962 1250:-0.010132171 1251:-0.070094936 1252:-0.066825137 1253:-0.10058793 1254:0.10466468 1255:-0.27913883 1256:-0.10708776 1258:-0.36920685 1259:0.030516732 1260:-0.079303242 1261:-0.012620527 1262:-0.47664022 1263:-0.0075839353 1264:-0.26938927 1265:-0.16510293 1266:0.027193259 1267:0.1071186 1268:-0.086779609 1269:-0.1608066 1270:-0.079983577 1271:-0.2063621 1272:0.57728612 1273:0.0240488 1274:-0.28603014 1275:-0.15808168 1276:-1.68325e-17 1277:0.096573435 1278:-0.10990355 1279:-0.012282598 1280:-0.28411296 1281:0.25406444 1282:0.045277432 1283:-0.18011299 1284:-0.12647296 1286:-0.015102593 1287:-0.37885094 1288:-0.082359262 1289:-0.10240694 1290:0.22920433 1291:-0.15977882 1292:-0.1394977 1294:0.199415 1296:-0.43608642 1297:-0.1336282 1298:-0.0082389154 1299:-0.13631412 1300:-0.25026006 1301:-0.33709925 1302:-0.18760724 1303:-0.10597631 1304:-0.0085912459 1305:0.15720868 1306:-0.011416142 1307:0.015341734 1308:0.016782587 1309:0.17145264 1310:-0.20821968 1311:0.38418519 1312:-0.24241091 1313:0.0094922222 1314:0.052193359 1315:-0.70045853 1316:-0.00079698907 1317:-0.0034479189 1318:-0.061399367 1319:-0.028582649 1320:-0.21418427 1321:0.062488016 1322:0.014085598 1323:-0.057565682 1324:-0.38447767 1325:-0.13930966 1326:-0.26041633 1327:0.093524389 1328:-0.10726292 1329:-0.18229951 1330:0.13001446 1331:0.068701334 1332:-0.19651859 1333:-0.095038459 1334:-0.1778633 1335:-0.0080866972 1336:-0.080414981 1337:-0.0093742227 1338:0.2146598 1339:-0.019048408 1340:0.2543402 1341:0.22525756 1342:-0.031807944 1343:-0.40437678 1344:-0.30820298 1345:-0.35409197 1346:-0.12808838 1347:0.12815018 1349:-0.12527743 1350:-0.040286358 1351:-0.11254171 1352:-0.17601565 1353:0.15448281 1354:0.11180091 1355:-0.004925373 1358:-0.22752756 1359:-0.15221487 1360:0.016626179 1361:-0.11620952 1363:-0.097308137 1364:-0.020560473 1365:0.17022139 1366:-0.30859399 1368:-0.0034644094 1369:-1.0607849e-17 1370:-0.022942938 1371:0.028377028 1372:-0.063879564 1373:0.078161806 1374:0.18158823 1375:0.029129233 1376:-0.036630675 1377:0.1197292 1378:-0.013734521 1379:0.27736571 1380:0.47107133 1381:0.0065604066 1382:0.010469576 1383:-0.080640428 1384:-0.084700271 1386:-0.11557548 1387:2.2551405e-16 1388:-0.054143261 1389:0.28526834 1391:-0.11074127 1392:0.0067617539 1393:-0.22605249 1394:0.012205835 1395:0.15053491 1396:-0.013054694 1398:-0.12343229 1399:0.0064711119 1400:0.04803082 1401:-0.017504128 1403:0.28922471 1404:-0.17594352 1405:-0.10872373 1407:-0.068968222 1408:-0.087539688 1409:-0.42673248 1410:-0.047136616 1411:0.059109315 1412:0.029409889 1413:-0.10090771 1414:-0.012720264 1415:-3.9851408e-17 1416:0.10919842 1418:-0.14177279 1419:-0.058067895 1421:0.09501303 1422:0.11574985 1423:0.019923052 1424:0.074955553 1426:0.0026877511 1427:-0.090947047 1428:0.0063520218 1429:0.08476492 1430:0.80845273 1431:0.10799476 1432:0.092888735 1433:-0.16164148 1435:-0.1134363 1436:-0.17388548 1437:0.0333759 1438:-0.11492733 1439:0.10250814 1440:-0.23725861 1441:0.076992817 1442:0.021749446 1443:-0.042027082 1444:-0.013932291 1445:0.031514246 1446:0.070547827 1447:-0.43066615 1448:0.0049950378 1449:-0.26983431 1450:-0.010880376 1451:-0.040739413 1453:-0.082379751 1454:-0.084657349 1455:0.097619802 1457:0.042214412 1458:-0.47394219 1459:-0.0011998159 1460:-0.034008835 1461:0.013706055 1462:-0.046379026 1463:0.16513082 1464:-0.2709119 1465:0.057310924 1466:0.1122444 1467:-0.042665001 1468:-0.055150617 1469:0.38981351 1470:0.045158297 1471:-0.1369281 1472:0.17004259 1473:0.0068818652 1474:-0.23138584 1475:0.048267584 1476:-0.04023366 1477:0.30378273 1478:-0.37669149 1479:0.39597014 1480:-0.23530254 1481:-0.0029067972 1482:0.24172159 1483:-0.11561558 1485:0.27668694 1486:0.052753069 1487:-0.012617556 1488:0.14133956 1489:-0.12680754 1490:-0.56775427 1491:-0.213801 1492:0.036480688 1493:-0.14474635 1495:0.0082829287 1497:-0.036904514 1498:-0.054677058 1499:0.070710436 1500:-0.87348813 1501:-0.15512834 1502:0.028688431 1503:-0.029591303 1504:-0.14441973 1505:-0.26964536 1506:-0.34250793 1507:-0.13464671 1508:-0.079056866 1509:0.51385128 1510:-0.15471734 1511:-0.13964832 1512:-0.056648798 1513:0.046495784 1514:-0.01117679 1515:-0.040610179 1516:-0.14635122 1517:-0.15558076 1518:0.1152912 1519:0.11796822 1520:-0.15703966 1521:-0.15703966 1523:0.12027526 1524:-0.0030011449 1525:-0.00024745488 1526:0.19391306 1527:0.43358257 1528:0.8999362 1529:-0.025084957 1530:-0.26151395 1531:-0.049647219 1533:-0.028372297 1534:0.14385936 1535:-0.07004562 1536:-0.4287084 1538:-0.28828439 1539:0.0017514287 1540:-0.086017676 1541:-0.0093577839 1542:0.22879501 1543:0.21275288 1544:-0.2232928 1545:0.031277366 1546:-0.056564447 1547:-0.14274129 1548:0.053223919 1549:0.054812729 1550:0.48765907 1551:-0.47545514 1552:0.17336267 1553:0.11173024 1554:-0.10238788 1555:-0.027974654 1556:-0.029259883 1557:-2.6846823e-17 1558:0.35011289 1559:0.0034718888 1560:-0.18681137 1561:0.26622179 1562:-0.14530781 1563:-0.061397996 1564:0.046011776 1565:-0.063052624 1566:-0.034741502 1567:-0.05165761 1568:-0.1162001 1570:0.12356824 1571:-0.0042182081 1572:-7.8551147e-18 1573:-0.0731721 1574:0.020001203 1575:-0.050004531 1576:-0.01994605 1577:0.0027743224 1578:0.24092652 1579:-0.047350515 1580:-0.0041515655 1581:0.055395905 1582:-0.016591666 1583:-0.17263158 1584:0.028461151 1586:-0.12050127 1587:-0.11939939 1588:-0.026436687 1590:-0.015190184 1591:0.5420534 1593:-0.0025137572 1594:0.057976842 1595:-0.21087615 1596:-0.03859121 1597:-0.13726576 1598:-0.21211867 1599:0.11731414 1600:-0.014449297 1601:-0.3441934 1602:-0.0039079143 1603:-0.4896341 1604:-0.052807748 1606:-0.07004346 1607:-0.31865647 1608:0.33298725 1609:0.19490454 1610:-0.35488999 1611:-0.0030840212 1612:-0.32623407 1613:-0.23856287 1614:-0.057635378 1615:0.021331474 1616:-5.3828239e-17 1617:-5.3828239e-17 1618:-1.0252968e-17 1620:0.50441182 1621:0.023127085 1623:-0.056592617 1624:0.17163174 1625:0.20445421 1626:0.1802206 1627:0.0028268679 1628:-0.10023935 1629:-0.069329426 1631:-0.075001769 1632:-0.10562494 1634:0.2120811 1635:0.066498458 1636:0.02804192 1637:-0.01314251 1638:-0.18403246 1639:0.40765297 1640:-0.0051157703 1641:0.063469671 1642:0.12187159 1643:-0.052658889 1644:-0.061519254 1645:-0.17703903 1646:-0.028608991 1647:-0.11648746 1649:-0.2678411 1650:-0.036748786 1651:0.43814677 1652:0.10113019 1653:-0.11550552 1654:-0.084596679 1655:-2.614527e-17 1656:-0.0092710685 1657:-0.027813205 1658:-0.035578035 1660:-0.49273449 1661:-0.34722278 1662:-0.037385985 1663:-0.12108169 1664:-0.1247865 1665:0.36107349 1666:-0.08043953 1668:0.1662017 1669:0.02165146 1670:-0.089734368 1671:0.036689546 1672:-0.083737731 1674:-0.063961506 1675:0.099123739 1676:-0.094153881 1677:0.14872199 1678:-0.04684877 1679:0.11501629 1680:-8.3991597e-18 1681:0.050853591 1682:-0.2508314 1683:-0.022934029 1685:0.52432936 1686:-0.05156292 1687:0.013680563 1688:0.16063295 1689:-0.020398157 1690:0.032014243 1691:-0.13568075 1692:0.019024741 1693:-0.0041515655 1694:0.022760905 1695:-0.0030681838 1696:-0.039136376 1697:-0.12987445 1698:-0.15480153 1699:-0.0030417664 1700:0.37853989 1701:-1.0344302e-17 1702:0.022512812 1704:-0.0023371584 1705:-0.01925152 1706:0.072775215 1707:0.17612618 1708:0.032591973 1709:-0.018157564 1710:-0.42113006 1711:0.15090011 1713:0.10173131 1714:-0.13290757 1715:-0.18096891 1716:-0.027848804 1717:0.62912822 1718:-0.081925251 1720:-0.035414185 1721:-0.012545544 1722:-0.07213895 1723:-0.053938117 1724:-0.076682664 1725:0.085294932 1726:-0.10550908 1727:-0.049953535 1728:-3.0158238e-17 1729:-0.050399434 1730:0.075332642 1731:-0.53553087 1732:-1.1792794e-17 1733:-0.060488608 1734:0.01370806 1735:-0.19931678 1736:0.096791223 1738:0.085500769 1739:0.045558479 1740:0.12270552 1741:0.021952987 1743:0.1064887 1744:0.044627231 1745:-0.13040599 1746:-0.21888323 1747:-0.13327096 1748:-0.051365025 1749:0.050070308 1751:-0.11545708 1752:-0.12615713 1753:-0.054844655 1754:-0.12578383 1755:-0.0042916308 1757:-0.069665834 1758:0.33623433 1759:-0.22740227 1760:-0.11081663 1761:-0.11664413 1762:-0.11664413 1763:-0.096371166 1764:-0.0029067972 1765:0.068799585 1766:-0.070324585 1767:0.13907191 1768:-0.029299658 1769:0.024295082 1770:-0.22466832 1771:-0.021704651 1773:-0.055123094 1775:-0.0017923337 1776:0.1726145 1778:-0.13184859 1779:-0.069559738 1781:-0.23265076 1782:0.046588261 1783:0.099301085 1784:-0.024993412 1785:0.36080977 1786:-0.10627842 1787:-0.1154549 1788:-0.1799477 1789:-0.033370603 1791:-0.028917378 1792:-0.068875983 1793:-0.14193328 1794:0.023776498 1795:0.23085633 1796:-0.18358813 1797:0.11212344 1798:-0.026104128 1799:0.024918074 1800:-0.0023152689 1802:0.52786481 1803:0.010042302 1804:0.0058508711 1805:0.10094688 1806:-0.097656816 1808:0.82237428 1809:0.062780596 1810:-0.050366182 1811:0.059506156 1812:0.058228575 1813:-0.073781766 1814:-0.16100104 1815:-0.070649721 1816:0.2275462 1817:0.025963016 1818:-0.12078799 1819:0.029242719 1820:0.013918694 1822:0.103109 1823:-0.15431008 1824:-0.17666443 1827:0.37353948 1828:-0.3651427 1829:0.13470379 1831:-0.023071773 1833:-0.0039436491 1834:-0.09829957 1835:0.058621924 1836:0.35598862 1837:-0.022818513 1838:0.33522961 1840:-0.17473574 1841:-0.16417816 1842:0.0028824124 1843:-0.097535953 1844:0.04356017 1845:-0.23834862 1846:-0.13536678 1847:-0.063638598 1848:-0.054002281 1849:-0.0038005388 1850:-0.27091601 1851:-0.10806024 1852:0.006732007 1853:-0.21068227 1854:-0.066780239 1855:-0.084251247 1856:-0.29251638 1857:-0.05366268 1858:0.036613308 1859:-0.010313574 1860:-0.15358174 1861:-0.090364523 1862:0.10005211 1863:0.10708525 1864:0.1030333 1865:0.049669281 1866:-9.8670554e-18 1867:0.16909784 1868:-0.049703784 1870:0.078021497 1871:0.078021497 1872:-0.073078811 1873:0.001401075 1875:-0.19860163 1876:0.030790599 1877:0.028604124 1878:-0.11476036 1880:0.10862147 1881:-0.21503033 1882:-0.042157326 1883:-0.16056143 1884:0.16737622 1885:-0.011193827 1886:0.097016327 1887:-0.15369131 1888:-0.11429178 1889:-0.023304772 1890:0.037871938 1891:0.44728729 1892:0.30993584 1893:-8.7403444e-18 1894:-2.4351678e-17 1896:0.14604355 1897:-0.10280684 1898:-0.041877665 1899:0.027243152 1901:-0.076898277 1903:-0.050589245 1904:0.28497028 1905:-0.017836628 1906:0.1455684 1907:-0.13945615 1908:-0.014124624 1909:-0.018670155 1910:0.13028899 1911:-0.11038608 1912:-0.24229187 1913:0.07804165 1915:-0.50721377 1916:0.11491328 1917:-0.51417494 1918:0.17226936 1919:-0.05896198 1920:-0.023391942 1921:-0.12121571 1922:0.0031495467 1923:0.046971355 1924:-0.061963037 1928:0.068798132 1929:-0.046719614 1931:0.12962578 1932:0.20996879 1933:-0.13572253 1935:-0.049719036 1936:0.323419 1937:-0.50295258 1939:0.051066808 1940:-0.02976408 1941:-0.00021299638 1942:0.1502696 1943:0.32937598 1944:-0.0029674717 1945:-0.055434417 1946:0.35078076 1947:0.1809981 1948:-0.097592033 1949:-0.045603637 1950:-0.061909694 1951:0.21496673 1952:-0.07323321 1953:-0.047774211 1954:-0.065043844 1955:0.35393766 1956:-0.18247129 1957:-0.12344538 1958:-0.029539213 1960:0.007221587 1961:-0.22745819 1962:-0.27291006 1963:-0.071095079 1965:-0.051385131 1966:-0.025290558 1967:0.0096496763 1968:-0.36196482 1969:-0.054360274 1970:0.16676439 1972:-0.11355185 1973:-0.36081553 1974:-0.12342642 1975:-0.11469416 1976:0.26300713 1977:-0.010486209 1978:-0.035067152 1979:-0.018972892 1980:0.25519961 1981:-0.016404737 1983:0.47338378 1984:0.050613392 1985:-0.14022276 1987:-0.013070588 1988:-0.0024231712 1989:-0.059487235 1990:0.17020813 1991:-0.051858667 1992:0.049742159 1993:0.28304657 1994:-0.019840514 1995:-0.17173965 1996:-0.15682606 1997:-0.12670803 1998:-0.053139549 1999:-0.042381935 2000:0.19209239 2001:-0.078082986 2002:-0.0013722604 2003:-0.011121932 2005:-0.0029067972 2007:0.069521494 2008:-0.04447649 2009:-0.22125305 2010:-0.14461222 2012:-1.3676092e-17 2013:-0.11752388 2014:-0.14175567 2016:0.22874077 2017:0.17610301 2018:-0.085173137 2020:-0.096611738 2021:-0.058146078 2022:0.84370649 2023:-0.088801511 2024:0.12848401 2025:0.26070997 2026:0.12156038 2029:-0.14235951 2030:0.0097706234 2032:-0.018909475 2034:-0.095510148 2036:-0.11874843 2037:0.0016183542 2038:-0.069760449 2039:-0.0030770516 2040:0.34115133 2041:0.049540266 2042:0.24937223 2043:-0.090112284 2044:-0.11775227 2045:-0.023075636 2046:-2.6351954e-17 2047:-0.31800076 2049:-0.042801872 2050:-0.16727228 2054:0.014836547 2055:-0.0077039455 2056:0.026642801 2057:-0.03927977 2058:0.016530611 2059:0.47578451 2060:-0.0033553801 2061:-0.12262602 2062:0.017073222 2063:-0.15857509 2066:-0.49022058 2067:-0.069803581 2069:-0.36408576 2070:-0.064713538 2072:-0.0086835893 2073:-0.10146429 2074:-0.27661425 2075:-0.0027040122 2076:0.13647352 2077:-0.068010487 2078:-0.061010279 2081:-0.05089172 2082:0.059148245 2083:-0.045104515 2084:-0.13047084 2086:-0.07615567 2087:-0.2042495 2088:-0.10187785 2090:0.010576136 2091:-0.085943326 2092:-0.0020920844 2094:-0.018671963 2095:-0.13781838 2097:0.32122862 2098:0.57124269 2099:0.10121074 2100:-0.098312862 2102:0.11939287 2103:0.35808566 2104:-0.13734455 2106:0.17238928 2107:0.059370045 2108:-0.045262683 2109:0.2690464 2112:-0.16822608 2113:-0.28606305 2114:-0.21250467 2115:-0.045509007 2116:0.081503853 2117:-0.08122132 2118:-0.015197823 2119:0.14320053 2120:-0.20650986 2121:0.0057040467 2122:0.48654842 2123:0.036607165 2124:-0.12920448 2127:-0.03298974 2128:0.22156182 2129:0.22156182 2130:0.77622497 2131:-0.069433928 2132:0.33910114 2133:0.097681791 2134:0.92857999 2135:0.27263033 2136:-0.18480217 2137:-0.17643611 2138:-0.11623085 2139:0.1417314 2140:-1.9739157e-17 2141:-0.16074778 2142:-0.0097368667 2143:-0.0095228897 2144:0.058905751 2146:0.23453192 2147:-0.034845322 2148:-0.024987353 2149:0.051931906 2150:0.027367191 2151:0.056491263 2152:-0.23113383 2153:0.37331194 2154:0.12294523 2156:-0.043209996 2157:-0.029708261 2159:-0.0055993581 2160:0.19071023 2161:-0.12183311 2162:-0.042807169 2163:0.21580717 2164:0.22419377 2165:0.090515412 2168:0.079994857 2170:-0.018613631 2171:-0.091007829 2172:0.080390982 2173:-0.024306234 2175:0.12440675 2177:-0.11196892 2178:-0.20940585 2179:-0.23812315 2180:0.009435961 2181:-0.085095122 2183:-0.019010961 2184:-0.0044006114 2185:-0.044149425 2186:0.032085996 2187:0.13159399 2188:0.088794157 2189:0.096917927 2190:0.14052346 2191:0.069022156 2192:-0.029551588 2193:-0.08687894 2194:0.26325318 2195:-0.0069846222 2196:0.014093176 2197:-0.27417099 2198:0.17586568 2200:-0.061091345 2201:0.40584302 2202:-0.13723588 2203:-0.0042382223 2204:0.048701808 2205:0.2028008 2206:0.37760246 2207:-0.27430618 2208:-0.23438919 2209:-0.11147624 2210:0.011648885 2211:0.2774097 2212:-9.5635496e-18 2213:-0.14869422 2214:-0.067719959 2215:0.1323843 2216:0.1639131 2217:-0.22235624 2218:0.033395227 2219:-0.043272492 2220:-0.13123542 2221:-0.10481299 2223:-0.20445591 2224:-0.17333594 2225:0.012703041 2226:-0.057633653 2227:-0.069559224 2228:-0.051610135 2229:0.2141562 2230:-0.37447339 2231:0.023165878 2232:-1.0043345e-17 2233:-0.099606708 2234:0.015479502 2235:-0.097563654 2236:0.041928288 2237:-0.0091930227 2238:0.52446169 2239:0.051691622 2240:0.69699341 2241:0.11098576 2243:-0.0306623 2244:-0.10590572 2246:0.17093557 2247:0.14849952 2248:-0.062978826 2250:0.52317715 2251:-0.38691947 2252:0.40760654 2253:0.032675549 2254:0.082796998 2255:0.18851949 2256:-0.33842701 2257:-0.055523023 2258:-0.11072198 2259:0.040633693 2260:-0.053682987 2261:0.19947451 2262:-0.1031078 2263:-0.062129613 2264:-0.066911511 2265:0.082568765 2266:-1.1557325e-17 2269:-0.11393313 2270:0.20302375 2271:0.075002447 2272:-9.5220739e-18 2273:-0.047767334 2274:-0.015581846 2275:0.054585777 2276:-0.028926589 2277:-0.72471583 2278:0.0038736211 2279:-0.061679624 2280:0.23885253 2281:-0.0042382223 2282:0.0022586691 2283:-0.033841245 2284:-0.027918788 2285:-0.27360734 2286:-0.035604358 2287:0.09665218 2289:0.12339661 2290:-0.090755634 2291:-0.0040067541 2292:0.044266887 2293:-0.17536633 2294:-0.15677078 2295:-0.050565999 2296:0.10603621 2297:-0.021285471 2298:0.019122768 2299:-0.21426144 2301:0.35063988 2303:-0.27349377 2304:-3.6670958e-17 2305:0.032924946 2306:0.25099373 2307:-0.10287112 2308:-0.19956073 2309:-0.097145081 2311:0.1443246 2313:-0.29116428 2314:0.032984298 2315:-0.029307889 2316:0.29369763 2318:-0.012276419 2319:-0.054795165 2320:-0.091302112 2321:-0.052495301 2322:-0.022250684 2324:-0.10847751 2325:0.1608014 2326:-0.054344784 2327:-0.061322547 2328:-0.021910859 2331:-0.057073291 2333:-0.00098948728 2334:-3.0429056e-17 2335:0.043879732 2336:-0.17524391 2337:-3.3370127e-17 2338:-0.038240198 2339:-0.11521831 2340:0.44888544 2341:0.39052942 2342:-7.7735117e-18 2343:-0.11489153 2344:-0.038139891 2345:-0.14804274 2347:-0.078776531 2348:-0.059879709 2350:-0.030008592 2351:0.45535544 2352:0.053172812 2353:0.4374375 2354:0.42943901 2355:-0.20859738 2357:-2.6642627e-17 2358:0.21320005 2359:-0.20176397 2360:-9.8094075e-18 2361:-0.014353839 2362:-0.17734694 2363:-0.14709722 2364:-0.04526167 2365:0.20902723 2366:0.011627803 2367:-0.02331697 2368:-9.2012742e-18 2369:0.030655518 2371:-1.4306013e-17 2372:-0.082539313 2373:0.0075951447 2374:0.43331563 2375:-0.034530085 2376:0.3083382 2377:-0.083189838 2378:-0.0065648514 2379:-0.11743781 2380:0.12246497 2381:-0.15565577 2382:0.038977671 2383:-0.03568732 2384:-0.60427207 2385:0.1888001 2386:-0.018523181 2387:0.039107334 2388:0.090932794 2389:-0.097566307 2392:0.14205532 2393:0.36752889 2394:-0.037637249 2395:-0.090696253 2397:-0.12705155 2398:0.041921966 2399:-0.21595111 2400:0.064236805 2401:-0.27024972 2402:-0.20557526 2403:-0.46865532 2404:0.063469402 2406:-0.035022009 2408:-0.2346372 2409:-0.071159251 2410:0.019493733 2411:0.024306374 2412:-0.0096966168 2414:-0.0026365726 2415:-0.045407891 2416:-0.34340405 2417:0.063181192 2418:0.40811509 2419:0.29781041 2420:-0.0031203588 2421:0.32379469 2422:-0.17970081 2423:-0.095834255 2424:0.026367052 2425:-0.021181816 2426:-0.11484907 2427:0.18186559 2429:-0.089061439 2430:-0.089061439 2431:-0.089061439 2432:-0.16724072 2433:0.15792324 2435:0.34711754 2436:-0.14923878 2440:-0.05438238 2441:0.10277751 2442:0.036278278 2443:0.027176749 2444:-0.072852559 2445:-0.14535978 2446:-0.026770798 2448:0.090594284 2449:0.10769418 2450:0.003073273 2451:-0.13054362 2453:-0.028583899 2455:-0.011515017 2456:-0.070649564 2457:0.31251431 2458:-0.01911379 2459:0.091748938 2461:0.72107267 2462:-0.017242584 2464:0.10697511 2465:-0.085315958 2466:0.12435492 2467:0.073737912 2468:-0.26381129 2469:0.040359356 2470:0.33166584 2471:0.077055722 2472:0.52946287 2475:0.019844035 2476:-0.23070738 2477:-0.058599316 2478:0.043221992 2479:-0.054669611 2480:0.1723609 2481:-0.090002701 2484:0.0061104079 2485:-0.073194511 2487:-0.16372864 2488:-0.028117711 2489:-4.2688224e-17 2490:0.47222638 2491:0.059472591 2494:-0.0034517753 2495:-0.034677271 2496:-0.056607965 2497:0.085050464 2498:-0.47046039 2499:0.12706763 2500:-0.016767008 2502:-0.035414673 2503:-0.14558692 2504:0.082209967 2509:-0.27618533 2510:-0.13115636 2511:-0.014889422 2512:-0.23238853 2516:-0.23722905 2517:-0.057787079 2518:-0.0085877143 2519:-0.019620383 2520:-0.038358051 2521:-0.039580043 2522:0.052196484 2523:0.1376822 2524:-0.12363604 2525:-0.16921914 2526:0.27138823 2527:-0.11679717 2528:-0.1158207 2529:-0.34459391 2530:-0.01773678 2531:-0.2736567 2532:-0.0666712 2533:-7.3572104e-17 2534:-0.052328933 2535:0.0074191582 2537:-0.092317529 2538:-0.14125551 2540:-0.061357569 2541:-1.7534697e-17 2542:0.079014853 2543:-0.40230063 2544:-0.084775642 2546:-0.76585108 2547:-0.065097362 2548:-0.036688477 2549:-0.009223057 2551:-0.27455088 2552:-0.091516949 2554:-0.15701066 2555:-0.1196502 2557:0.096525364 2558:-0.022066854 2559:-0.032543238 2560:-0.14076842 2561:-0.12146735 2562:-0.017894328 2564:0.20523115 2565:-0.082535349 2568:-0.05210834 2569:-0.088229351 2570:0.029745385 2571:-0.2144291 2573:0.0080755241 2574:0.020604448 2575:-0.44333637 2576:-0.013935746 2577:-0.041356578 2578:0.12891038 2581:0.17162487 2583:-0.22044298 2584:-0.047881894 2587:-0.063348003 2589:-0.23290628 2590:-0.054063331 2591:0.040713739 2592:0.051595423 2593:0.14218144 2594:-0.20131537 2595:-0.014577755 2597:-0.099929057 2603:-0.0042863158 2604:0.20831092 2605:-0.0078795357 2608:0.13597642 2609:-0.17468923 2611:0.083354458 2612:-0.032915402 2615:0.48931777 2616:0.037485611 2617:-0.15463869 2618:-0.084732451 2619:-0.076235905 2620:-0.34685373 2621:0.011580275 2622:0.31168205 2623:0.13815057 2624:0.11331038 2625:-0.045955151 2626:-0.0088134529 2629:-0.039636854 2631:-0.13471968 2633:-0.056510661 2634:0.04563912 2636:0.079588324 2639:0.048746392 2640:-0.18691027 2642:0.0036731928 2643:0.14577655 2644:0.11812531 2645:-0.0021121129 2646:0.05702579 2647:0.067851052 2648:-0.041159507 2649:-0.0077538108 2650:-0.38943627 2651:-0.040748417 2652:-1.0819466e-17 2653:-0.14842469 2657:0.10122561 2658:-0.045004655 2659:-0.1824383 2662:-0.040746331 2663:0.098621711 2664:-0.030973516 2666:0.24198361 2667:-0.015648777 2668:0.027435824 2669:0.14739965 2671:-2.0291716e-17 2672:-0.069420718 2673:-0.10879314 2674:-0.26712161 2675:-0.050382692 2676:-1.6437591e-17 2677:-0.45618096 2678:-0.17133833 2679:0.1998466 2680:-0.025311539 2681:-0.0028466987 2682:0.48710462 2683:-0.059774958 2684:0.08053311 2685:-0.026864009 2686:0.22643223 2687:0.1257344 2688:0.032489091 2689:0.50253993 2691:-0.26794824 2692:-0.17565666 2693:0.023898784 2694:-0.047061753 2695:-0.1409474 2697:-0.13643035 2699:-0.0081635052 2700:-0.15376174 2701:-0.10773404 2703:-0.016934626 2704:-0.22754011 2705:-0.32357147 2706:-0.017717566 2707:-0.16860549 2708:-1.0235901e-17 2709:0.3686296 2710:-0.14015974 2711:-0.22878999 2712:0.14799224 2718:-0.029392691 2719:-0.040595986 2722:0.11145702 2723:0.098363556 2724:-0.022533894 2726:0.55267489 2727:-0.14471048 2728:-0.14037086 2729:-0.14037086 2730:0.061671007 2731:0.0057483269 2733:-0.19145639 2734:-0.11696794 2735:-0.14085744 2736:-0.24369949 2737:0.12330882 2738:-2.3467223e-17 2740:0.06252344 2741:0.048031896 2744:0.038759157 2745:0.51455498 2746:-0.10432072 2748:-0.036366556 2749:-0.087669395 2750:-0.12757581 2752:-0.21925065 2753:0.017322922 2754:0.29838091 2756:-0.0098865693 2757:0.46492866 2758:0.46492866 2759:-0.036462657 2760:0.11049586 2761:-0.17138813 2762:-1.6924681e-17 2763:0.11900892 2764:0.053551707 2765:-0.006253337 2766:-0.14946467 2767:-0.099822447 2768:0.16385998 2769:0.074846916 2771:0.2875106 2774:-0.005972276 2775:0.19681776 2776:-0.11576839 2777:0.064755075 2778:0.050299112 2779:0.097286262 2780:-0.02973588 2781:-0.21103634 2782:0.071470968 2784:-0.085810438 2785:0.15912634 2786:-0.016451485 2787:-0.0051337448 2789:0.063471869 2792:0.24874158 2794:-0.033457216 2795:-0.44722292 2796:0.14731225 2798:0.47379917 2799:0.46375874 2801:0.29656374 2803:0.0039355936 2804:0.042136822 2806:-0.011485162 2807:-0.39621252 2808:0.17148252 2809:-0.043061517 2813:-0.13547745 2815:0.20124133 2816:-1.9496994e-17 2817:-0.27566874 2818:-0.044099744 2819:-0.062821411 2820:-0.046091214 2821:-0.06033124 2823:0.33896673 2824:-0.22127226 2825:-0.055953622 2826:0.0318438 2829:0.051189773 2830:-0.079477176 2831:-0.20369396 2833:0.10325459 2834:-0.14328511 2837:0.073732436 2838:0.16495021 2839:-0.10123016 2840:-0.099876039 2841:0.38447332 2842:0.11953403 2844:-0.090451792 2845:-0.019298453 2846:-0.069532104 2848:0.028316597 2850:-0.46433744 2851:-1.5587999e-17 2852:0.067446254 2853:-0.010491911 2854:0.19949618 2855:-0.023105901 2856:-0.019196503 2857:-0.12807362 2858:-0.070063792 2860:-0.18137778 2861:0.095290735 2862:-0.21617775 2864:-0.12465203 2865:-0.0154391 2866:-0.18559873 2867:-0.34474826 2868:-0.03626775 2871:-0.024263358 2873:0.47329649 2874:-0.010773441 2877:0.088769205 2878:-0.040976785 2879:0.11020372 2880:0.060008463 2881:-0.065859757 2882:-0.042224202 2884:0.060903676 2886:1.0086803 2887:0.47236711 2888:0.021998739 2889:-0.049007952 2892:0.27715522 2893:-0.17993049 2894:-0.08188463 2896:-0.08578261 2901:-0.24935043 2902:-0.035301324 2904:-0.13317655 2905:-0.053632591 2907:0.49611512 2908:0.11030261 2909:-0.34258115 2910:-0.030912202 2911:-0.32202503 2912:-0.045869336 2913:-0.19693257 2915:-0.1200962 2916:-0.13259211 2917:-0.063300535 2919:-0.1175128 2923:-0.077940986 2924:0.24560927 2925:-0.092532516 2926:0.026370067 2927:0.10385499 2928:0.28204829 2929:-0.10635763 2931:-0.17949177 2932:0.10464269 2933:-0.019839687 2934:0.41634989 2935:0.20363759 2936:-1.7853453e-17 2937:-0.054630723 2938:0.096131131 2940:-0.099460408 2941:-0.61619508 2942:-0.19558422 2944:0.10861939 2945:0.33375743 2946:0.026123932 2948:-0.26336861 2949:-0.093386732 2950:0.036467951 2952:-0.021049814 2953:0.07875149 2955:-0.0018244541 2956:0.02394538 2957:0.054669593 2958:0.04994313 2959:-0.080400392 2960:0.058009181 2961:-0.12815839 2962:-0.028612962 2965:-0.05987452 2966:-0.64745158 2967:0.094823293 2968:-0.18903701 2969:-0.38839874 2970:0.38729125 2971:-0.066925883 2972:-0.071696699 2973:0.056009933 2974:-0.071306586 2975:0.11920138 2976:0.069367997 2977:-0.028870283 2979:0.0028842986 2981:-0.027953163 2982:-0.48480806 2983:0.038743988 2984:-0.078832895 2986:0.024641534 2987:0.031390838 2988:0.0058793235 2989:0.20043109 2991:-0.056230325 2992:0.078526407 2993:-0.084007688 2994:-0.031738911 2996:0.018104786 2997:0.10890622 2998:0.11507241 2999:0.16075546 3000:-0.063264884 3001:0.084710456 3004:-0.028251158 3005:0.40641135 3008:0.095856249 3010:-7.8354303e-18 3011:-0.0046479665 3013:0.0027700907 3014:-0.020963132 3018:0.23482181 3021:-0.14653908 3022:-0.031690843 3023:0.028466826 3024:-0.08856716 3025:-0.019910384 3027:-0.0099341888 3029:0.20133546 3030:-0.023974879 3031:-0.14284873 3033:-0.10985811 3034:-0.032923106 3035:0.03613808 3036:0.2706444 3038:-0.080634601 3042:-0.084672652 3044:0.023268236 3045:0.28874114 3046:0.083233289 3047:-0.053142682 3049:0.34828648 3050:0.27591634 3051:-0.15505384 3052:-1.102224e-17 3055:-0.023843411 3056:-0.041095048 3057:0.079436131 3058:0.028101062 3059:-0.066345707 3060:0.01200076 3061:-0.076875918 3063:-0.024736477 3064:0.15643433 3065:0.015418287 3069:-8.6650883e-18 3070:0.070340492 3071:-0.031752609 3072:-0.15605021 3073:0.012029386 3074:0.0020892033 3075:-0.061028656 3077:-0.028108798 3078:-0.053801544 3079:-0.21139599 3081:-0.047488414 3082:-0.028142683 3083:0.0014533177 3084:-0.16112836 3085:0.051501133 3086:0.35193345 3087:0.12592305 3088:-0.035297584 3089:0.15164007 3090:0.074132562 3091:0.1034347 3093:-0.010403197 3094:-0.013174091 3095:0.038293861 3096:-0.089684732 3101:0.04019006 3102:-0.10258777 3103:-0.14445452 3105:-0.38883567 3106:-0.0085877143 3108:-0.37880123 3109:-0.28267124 3110:-0.0049971822 3111:-0.32276583 3112:0.011769247 3113:0.014050531 3114:-0.041979142 3115:0.10152996 3116:-0.25198087 3117:0.1685406 3118:0.12671794 3119:0.071435951 3121:0.065190963 3123:-0.1072855 3124:0.53570223 3128:-0.020148048 3129:0.0091919173 3131:0.062135171 3132:0.039731331 3134:0.027764592 3135:-0.036311172 3136:0.33881471 3137:-0.020874245 3139:-0.029323326 3140:-0.049446199 3141:0.024465866 3143:-0.11715584 3144:0.013726534 3147:-0.020884076 3148:-0.26433811 3149:-0.15637575 3150:-0.082116231 3151:-0.036515765 3152:-0.0028241209 3153:-0.041244861 3154:-1.3033513e-17 3156:0.12341529 3157:-0.041185133 3158:0.24530473 3160:-0.017632887 3161:0.10893847 3162:0.046664093 3163:0.019267015 3166:-0.0814889 3167:0.096585229 3169:-0.058080588 3170:0.16133456 3174:-0.17369506 3175:-0.050363582 3176:-0.025288001 3177:-0.54580438 3179:0.015681401 3181:0.067560084 3182:-0.0030813243 3183:0.06122335 3184:0.04284022 3185:0.21435615 3187:-0.14771886 3188:0.044121165 3191:0.038862627 3194:0.046081632 3195:-2.0486058e-17 3197:0.16801387 3198:-1.3127822e-17 3199:-0.047536008 3200:0.0037784921 3204:-0.094555095 3206:0.078188732 3207:0.043516275 3208:0.0061662928 3209:0.15024555 3210:-0.18608917 3211:-0.18608917 3212:0.070402384 3213:-0.015303993 3215:-0.1509942 3216:-0.059656441 3218:-0.25030795 3219:0.13177405 3220:-0.034979686 3221:-0.056210879 3222:-0.054621685 3223:-0.0018570507 3228:-0.094160289 3232:-0.037377473 3235:-3.15225e-17 3236:0.76483899 3237:0.040858399 3238:-2.1022282e-17 3241:-0.078812182 3245:-0.40545878 3246:0.0039830822 3248:0.114969 3251:0.09487348 3253:-2.0816682e-16 3254:0.087124847 3255:0.35424525 3256:0.084796011 3257:-0.1502099 3260:-0.0609628 3261:-0.012749172 3262:-0.11880441 3263:-0.068362832 3264:-0.13356641 3265:-0.0761609 3266:0.055648308 3270:0.21706212 3271:-1.0230082e-17 3273:-0.13944502 3274:-0.13588078 3275:0.085963964 3277:-0.16187046 3278:-0.028629407 3281:-0.03503279 3283:-0.035145469 3284:-0.25519919 3285:-0.057755716 3287:-0.40681583 3289:-0.021945501 3292:0.066486314 3295:-0.095284395 3297:0.015912464 3298:-0.062549226 3299:-0.053727817 3300:-0.0041171839 3301:-0.087989241 3302:-0.19701767 3304:-1.9047405e-17 3307:0.015742991 3311:-0.058186416 3315:0.26385969 3316:-0.040809497 3317:-0.011306989 3318:0.0082453107 3319:-0.066601813 3320:-0.062207162 3323:0.474217 3324:-0.14745788 3325:-1.5023868e-17 3331:0.13673536 3333:-0.019514246 3335:0.3321926 3337:0.077212654 3339:-0.0093442677 3342:-0.043774005 3343:0.25009677 3344:-0.062435087 3345:-0.12487017 3347:-0.12604909 3348:0.39339155 3349:0.05182245 3350:-0.027552791 3352:0.24766891 3357:-0.064021438 3360:-0.26618776 3361:-0.022359734 3364:0.060321353 3365:0.1826892 3366:0.39598572 3369:-0.14810513 3370:-0.021831952 3371:-0.061102349 3372:-0.035012912 3373:-0.037099168 3374:0.28437826 3375:-0.068074137 3376:0.079300381 3378:-0.18478861 3379:-0.072904825 3380:-0.036214899 3381:-0.056710955 3382:-0.094619818 3387:-0.053538132 3388:0.16606894 3389:0.10788038 3391:-0.15312429 3395:-0.07917092 3396:-1.9047405e-17 3397:-0.09758231 3398:0.095777757 3399:0.15980789 3400:0.14889298 3401:0.070155568 3402:0.077858232 3404:-2.5094029e-17 3405:-0.034853544 3407:0.052498415 3408:0.0013750523 3412:-0.018777123 3413:-1.3876144e-17 3414:0.029165104 3416:0.39560878 3421:-0.011513721 3425:-6.8007481e-18 3426:-0.078230128 3428:-1.903691e-17 3429:-0.057570565 3430:-3.3714151e-17 3432:0.020905698 3434:-0.083019264 3439:-0.030177653 3440:-0.031738911 3442:0.096407272 3444:0.052282102 3447:0.039641339 3448:-0.28213301 3449:0.12830544 3451:-1.0595401e-17 3452:-0.01417072 3454:-0.098040223 3457:-0.055688038 3458:0.054256581 3461:-1.3329235e-17 3462:-0.042220704 3463:-0.2158253 3464:-0.016197111 3465:-0.011161225 3466:-0.035481185 3467:-0.0035027692 3469:-0.076248236 3471:0.15184173 3472:-0.23651731 3473:0.3266511 3474:-0.025074776 3475:0.057771467 3477:-0.0046358355 3479:0.06923569 3480:-0.066895142 3482:0.063093938 3483:-0.020488393 3484:0.43539882 3486:-0.23120843 3487:0.011834973 3488:-0.053142682 3489:0.019882001 3490:0.062282819 3491:0.03434575 3492:-2.0154926e-17 3493:-5.3341781e-17 3494:-0.093552142 3495:-0.026445266 3496:-0.060616396 3497:-0.085585155 3499:-0.026950616 3500:-0.068312019 3501:0.021784252 3502:0.39386287 3503:-0.4261165 3506:-0.018620366 3507:0.0017044095 3508:-0.34468287 3509:0.015843933 3511:-3.5627748e-17 3512:-0.061366197 3513:0.19167145 3516:-0.093653113 3518:-0.028733471 3519:-0.032947008 3520:0.26331472 3521:0.031825703 3523:0.19892415 3525:0.023271872 3527:0.0021073481 3529:-0.0095580528 3530:0.04010516 3534:0.049333643 3535:-0.030097242 3537:0.12408519 3539:-0.066726439 3540:0.25807312 3541:0.034627311 3542:-0.031386532 3543:-0.11808313 3545:-0.0019846277 3546:-0.12469278 3547:0.026317647 3549:0.039340816 3551:0.22317971 3552:0.043562889 3553:-0.0017108129 3554:-0.02917853 3556:-0.11533129 3557:0.064897582 3559:-0.078770936 3561:-0.0029764473 3562:-0.021846514 3563:0.10392046 3564:-0.19435221 3565:0.055652745 3566:-0.044457987 3568:0.14316641 3569:-1.0922188e-17 3570:-0.22218511 3571:-0.077106096 3572:-0.063286074 3573:0.35624912 3575:-0.1154997 3576:-0.031769454 3577:-0.09798599 3578:0.083569311 3579:-2.4677175e-17 3580:0.019070793 3582:0.044042367 3583:-1.4089887e-17 3584:-0.11254585 3586:0.020121504 3587:-0.048157323 3588:0.059194833 3589:0.026321311 3590:-0.045992739 3591:-0.043342553 3592:-0.23417915 3593:0.021986896 3594:0.10003207 3595:-8.3991597e-18 3596:-0.080629982 3598:-0.1960756 3599:-0.023322597 3601:-0.25229895 3602:0.041293588 3604:-1.4755105e-17 3605:0.055054881 3606:-0.0032824257 3609:-0.3368111 3610:-0.30883029 3611:0.44195902 3612:0.086545408 3613:0.066249363 3614:0.16578339 3616:-0.0042863158 3618:-0.015869122 3619:-0.026877481 3620:-0.032675683 3621:0.2704969 3622:0.33923084 3623:-1.1105405e-17 3624:0.097535871 3627:0.059399635 3629:-0.018637644 3633:-0.031650476 3634:-0.27545398 3636:0.52489966 3643:-0.009911322 3644:0.31518626 3645:0.06509985 3652:-0.45727119 3653:-0.0010147166 3654:-2.057765e-17 3657:-0.16256833 3658:-0.018738339 3661:-1.3175977e-17 3662:-0.13908285 3666:0.14442191 3667:0.033008605 3668:-0.16787404 3669:0.18179756 3670:0.029522788 3671:0.006309473 3672:-0.20566411 3673:-0.022973554 3674:-0.10271341 3675:0.024252133 3676:0.52233642 3677:0.045393333 3679:0.021621292 3680:-0.06673193 3681:0.032028113 3683:0.11937304 3684:0.045404807 3685:0.040852524 3687:-0.064060964 3688:0.01197892 3689:0.36208007 3690:-0.13611102 3691:0.27580264 3692:0.029219171 3694:0.029805496 3695:-0.11083292 3696:-0.27618295 3697:0.083945543 3698:0.026681185 3699:-0.16426972 3700:-0.14587897 3701:-0.21656811 3702:-0.0079392465 3703:-0.014125243 3704:0.073350072 3707:0.26875153 3708:-0.092843533 3710:0.057531342 3711:0.11855723 3712:0.011227612 3714:-0.022201957 3715:-0.096139953 3716:0.067306966 3717:0.13041131 3718:0.085938491 3719:-0.55116683 3722:-0.11983722 3724:-1.3141339e-17 3725:-0.13909258 3726:-0.073922448 3727:0.14404798 3728:0.050613392 3731:0.066207238 3732:-0.12854044 3733:0.12354898 3734:0.090763576 3735:0.08379551 3736:-0.0030011449 3737:-0.0095891999 3738:0.044568248 3739:0.025917204 3740:0.02263736 3741:-0.10308408 3742:0.080292642 3743:-0.0022810942 3745:-0.032940876 3746:-0.17039113 3748:0.060490191 3749:0.4781853 3751:0.11694697 3753:-9.175515e-18 3754:-0.3744913 3756:0.31432194 3758:0.29690918 3759:-0.0091789737 3760:0.10578825 3762:-0.030921418 3763:-0.26268694 3764:-0.02803125 3765:-0.010120208 3766:0.18832257 3767:-0.046684992 3768:0.0065087774 3772:-0.56470573 3773:-0.10093972 3775:-0.1228078 3776:0.012539022 3777:-0.11465795 3778:-0.012462821 3779:0.059072528 3781:0.20738122 3782:-0.11854699 3783:0.041488428 3784:-0.039059523 3785:-0.26770219 3786:-0.24043302 3787:0.36041883 3790:-0.13132833 3792:-1.1449693e-17 3793:0.050045628 3795:0.22940689 3796:0.011815504 3797:-0.012331149 3799:-0.094405375 3803:-0.88519943 3804:-0.15178744 3807:-0.18588775 3810:-0.16106464 3812:0.031252693 3813:0.18189216 3814:0.043750577 3815:-0.10712469 3818:0.0046459264 3819:0.053418238 3820:-0.025122641 3822:-0.022022722 3823:-0.013594282 3824:-0.080949806 3825:0.06747321 3827:-0.044861171 3835:-0.26368392 3837:0.00063969637 3841:-0.061244026 3842:-0.032767165 3843:0.63056934 3845:-0.061409898 3846:0.11082403 3848:-0.072776854 3851:0.011170426 3852:0.32239318 3853:-0.074874431 3855:-0.1338906 3859:-0.22354011 3861:-0.002250921 3862:-8.5206262e-18 3864:0.36278293 3865:0.082365319 3868:-0.012347939 3870:-2.0336037e-17 3874:-0.10314976 3877:-0.025288001 3878:0.080284186 3880:0.42119288 3881:0.054246608 3882:0.071082279 3884:0.1936153 3885:-0.042191647 3886:-1.3541516e-17 3887:0.047655996 3888:-5.5221896e-17 3890:-0.043276943 3891:-0.24085893 3892:-0.14946429 3895:0.23094098 3896:-0.019390168 3897:0.022066822 3899:0.088016368 3901:-0.28874543 3904:-0.47647765 3905:0.36931959 3909:0.04357709 3912:-0.11520234 3913:-2.4477063e-17 3914:0.011956315 3918:-0.04434637 3919:-0.19576432 3921:0.029392635 3923:-0.027149605 3924:-0.17115107 3925:0.65516388 3926:0.28682888 3927:0.024537612 3929:0.046744399 3930:0.14451742 3932:-0.032791045 3936:-0.053366415 3937:0.37914985 3939:0.33245218 3940:0.051267289 3941:-1.1709492e-17 3943:-0.060652774 3944:-0.021405537 3945:0.06409017 3948:0.054386031 3949:-0.72351497 3950:0.41530114 3951:0.033424467 3952:0.056973845 3954:-0.051087722 3955:0.07773646 3957:-0.17620149 3958:0.29348528 3959:-0.035430375 3961:0.094133884 3962:0.14488447 3963:0.067337044 3965:-0.081394412 3966:-2.3540207e-17 3967:-2.3540207e-17 3969:-0.085362144 3972:0.048149321 3973:-0.030888919 3979:-0.058077112 3981:-0.049555209 3982:0.00023978676 3985:-0.0092615904 3986:0.015667303 3987:-0.010227527 3988:-0.57345551 3989:-0.034845322 3991:-0.015355727 3992:-0.022958705 3994:0.010897291 3995:-0.12196724 3996:-0.018768331 4001:0.084488869 4002:0.11829349 4003:0.22847208 4004:0.047376636 4006:-0.0039248699 4007:-0.0098101916 4008:0.000180559 4015:0.083441123 4019:-0.018806186 4020:0.14110297 4021:0.78794634 4024:0.1981497 4028:-0.46712914 4030:0.08681912 4031:0.1434878 4033:0.17839704 4034:0.044568248 4035:0.059651565 4036:-0.029804977 4037:-0.06563428 4040:-0.026288647 4042:-0.067955114 4044:0.33849028 4046:-0.12507699 4047:-0.092269994 4048:0.0012706171 4049:-0.028942097 4050:0.054877926 4051:-1.7242439e-17 4052:-0.015477655 4055:0.036540199 4056:-0.046009619 4059:-0.028244151 4061:-4.5095382e-17 4062:0.12909 4063:0.056110237 4064:-0.016863955 4065:-0.076057665 4066:0.45997933 4068:-7.2264411e-17 4069:-0.035722248 4070:-0.19716693 4071:-0.022291534 4078:-0.097996071 4080:0.089256413 4082:-0.098358318 4084:0.0079290746 4087:-0.21149352 4088:0.057709213 4089:-0.10841581 4090:0.11789895 4091:0.077049449 4093:-0.079782538 4094:-0.030202748 4095:-0.23237844 4101:-0.064270221 4102:-0.12105842 4103:0.092614159 4107:-0.13814396 4108:0.016941216 4109:0.075681008 4111:-0.011711676 4112:0.0032797426 4117:-0.14597534 4118:0.050472219 4119:-0.025006793 4124:0.12745395 4126:0.090317808 4130:0.0069553438 4131:0.022782084 4135:-0.063045219 4136:-0.04434637 4137:-0.054063331 4139:0.050598271 4140:0.032540999 4141:0.028442783 4142:-1.5467295e-17 4143:-1.5467295e-17 4144:0.083413698 4146:-0.0054958561 4147:0.19931027 4148:-0.12682489 4150:-0.24606153 4152:-0.027149605 4154:-0.061718903 4155:-0.081336983 4156:-0.038758699 4158:-0.026698604 4159:-0.15793563 4160:0.22759032 4161:-0.061965201 4162:0.028695691 4164:0.048611056 4165:-0.056147501 4166:-0.044327956 4169:-0.26638615 4171:0.049841288 4172:-2.7449783e-17 4173:-6.8624452e-17 4174:0.07278908 4175:0.034824129 4176:0.053040359 4177:0.11295813 4178:-0.36275482 4181:-1.1238051e-17 4182:-0.17369506 4183:0.01889158 4185:0.036188636 4187:-0.028454641 4188:-0.2529085 4189:0.051144708 4190:0.10146358 4191:-0.011681636 4195:-0.16881408 4199:-0.076633394 4200:-0.046564635 4201:-0.64614826 4203:0.077056885 4205:0.36797503 4207:0.0051978012 4208:-0.022664523 4209:-0.060392171 4211:-0.013594282 4212:0.056784328 4213:0.47186998 4214:-0.20314626 4217:0.03237696 4218:-0.12269307 4219:-0.05210834 4220:0.0052308119 4221:-0.052363735 4222:0.040293809 4224:0.14821799 4225:0.36931959 4226:0.0823116 4231:-0.24170935 4232:0.11691441 4233:-0.078493275 4234:0.17603104 4235:0.20624179 4237:0.070426717 4239:-0.12073594 4240:-1.1234284e-17 4241:-0.24056196 4243:-1.2336667e-17 4244:0.38517374 4246:-0.016461553 4247:-0.030897602 4248:0.090495571 4250:-0.00625611 4251:0.046800528 4252:-0.11172749 4254:0.025716666 4257:-0.04434637 4258:-0.075331241 4259:0.45270452 4262:-0.033034377 4264:0.094501488 4265:0.34521833 4266:-0.027381619 4267:-0.11496843 4268:0.15832727 4270:-0.0044746855 4273:-0.16818327 4275:-0.083380759 4276:-0.077177688 4277:-0.10278577 4279:-0.066266879 4281:-0.049167987 4282:-0.013932291 4286:-0.24692883 4287:-0.01350588 4288:0.30290467 4292:0.4290435 4293:-0.024606297 4295:-1.3855829e-17 4296:0.03707986 4297:0.3816269 4300:0.13196774 4301:-0.071327634 4305:0.6499781 4307:-2.0315629e-17 4308:-0.075033672 4309:-0.11549307 4310:0.34573406 4311:0.21598282 4312:-9.0963315e-18 4315:0.16336189 4317:-0.03604741 4321:-0.24977654 4322:0.37249884 4325:0.030492259 4326:0.061990883 4327:-0.091403142 4328:0.037130471 4330:0.22932769 4331:0.093632668 4332:0.40003052 4335:0.010259965 4337:0.017149253 4338:0.062645964 4344:-0.010107307 4345:-0.010731829 4347:-1.1982992e-17 4349:0.080757976 4350:-0.030897602 4351:-0.030897602 4353:-0.081314057 4354:0.037400443 4355:-0.25453916 4359:-0.044866215 4370:0.05064046 4372:-0.14184654 4374:-0.017746149 4375:-1.7908869e-17 4379:0.31457296 4382:0.047064964 4383:-2.5157934e-17 4384:-0.073922448 4385:-0.068039715 4388:0.046664093 4390:-0.072015032 4392:-0.058786675 4393:0.059517819 4394:-1.348101e-17 4395:0.045524463 4396:0.242909 4397:0.08601699 4398:0.12011848 4402:0.052683145 4404:-0.080301873 4405:-0.028251158 4407:-0.043496348 4408:-0.04379398 4409:-0.54934293 4412:-0.26338884 4413:-0.059130389 4416:0.072518401 4417:-0.05598446 4422:-0.058761545 4424:0.14880587 4425:0.1954184 4427:-0.008836966 4429:-0.049361385 4430:-1.0152829e-16 4431:-0.050001394 4432:-0.08233469 4437:0.16159517 4438:0.068722084 4440:0.01136625 4442:-0.068252973 4443:-1.2856246e-17 4444:-0.0041529676 4445:-0.040362258 4446:-3.4437408e-17 4447:-0.37546155 4448:0.13755223 4450:0.17933865 4451:0.19959766 4452:-0.032917228 4453:-0.15359952 4456:-0.028085986 4457:0.025254117 4458:0.16259488 4461:0.48778459 4467:-0.13028944 4468:0.034688894 4469:0.061699592 4470:-1.857783e-17 4471:0.097654961 4472:-2.5353686e-17 4473:-0.18419316 4474:0.020250559 4475:0.29694173 4476:-0.12185889 4477:-0.086048067 4478:-0.094923712 4479:0.049577694 4481:0.10511546 4482:0.10511546 4483:0.10511546 4485:-0.15176925 4486:0.1191532 4487:0.30160484 4488:0.15795597 4492:0.31435761 4493:0.087327607 4494:-0.0049064057 4495:-0.13259211 4496:-0.097943611 4498:-0.082202829 4499:-0.23053569 4500:0.017709576 4501:0.23424922 4504:-2.2500284e-17 4505:0.10853106 4507:-0.11935386 4508:0.012208036 4510:0.0012616361 4511:-0.074056268 4512:0.059729543 4513:0.0046459264 4515:-0.30713746 4517:0.036894027 4518:-0.056488302 4519:0.04429806 4521:0.056891002 4522:-0.082202829 4524:-9.3162896e-18 4525:0.031629711 4528:0.12098591 4530:-0.020197494 4532:-2.1107125e-17 4534:0.13533732 4535:-0.35023111 4536:-1.7534697e-17 4537:0.065662384 4538:-0.12767117 4540:0.36255571 4545:-0.12887618 4546:-0.017113624 4547:-0.063711047 4548:-0.015116529 4549:-0.018760981 4551:-0.07874079 4553:0.55080819 4555:0.047916196 4556:0.14424278 4559:-0.38174519 4562:-0.13008898 4565:-0.25108597 4568:-0.037333786 4575:-0.25153658 4576:0.17718653 4577:-0.082480885 4580:-0.13677861 4585:0.0025187877 4588:0.18432975 4589:0.13410971 4590:-0.1040861 4591:0.27852571 4595:-0.12540083 4596:-0.035604358 4597:-6.8874817e-17 4598:-0.079996608 4599:-0.029796319 4601:-0.010793324 4602:0.073259175 4603:0.08836744 4604:0.02487324 4606:0.30690914 4607:-0.057168238 4610:0.027683349 4611:-3.6837582e-17 4613:-0.015335627 4614:-0.11352902 4615:0.1671823 4617:-0.083271541 4618:-0.031280551 4619:0.32135165 4621:-0.27368864 4623:0.47775689 4624:-0.38620499 4625:-0.035237815 4629:-0.15028122 4630:0.014574478 4631:0.014574478 4632:-8.3151487e-18 4636:-0.043276943 4637:-0.050857931 4639:-0.027702821 4640:0.036963809 4643:-0.14225177 4644:-0.044861171 4645:-0.37658194 4648:-0.031693447 4649:0.14731705 4650:0.0016669837 4651:-0.011021443 4653:-0.099358961 4655:0.12583089 4658:-0.0014232503 4659:0.036620673 4662:-0.041897375 4663:-0.041897375 4664:-0.11310351 4665:-0.11310351 4667:-0.11310351 4668:-0.11310351 4670:-0.11310351 4675:-0.11310351 4676:-0.11310351 4677:-0.031579785 4678:-0.014614944 4682:0.33962899 4683:0.11442226 4684:-0.052556567 4685:0.07824754 4686:0.067943461 4688:0.041205514 4689:0.36103889 4693:0.044869561 4694:0.029098885 4697:-0.055180971 4698:-0.079233177 4700:-0.5436877 4703:0.013139452 4704:-0.10500752 4705:0.10411254 4708:-0.055040929 4709:-0.28570408 4711:0.014806735 4716:0.29784241 4717:0.086982735 4718:0.031825703 4719:0.047542904 4720:0.41891751 4726:-0.0047880867 4727:-0.016157268 4731:-0.19839224 4732:0.0041520228 4734:-0.088570848 4737:0.18650077 4740:-0.02942146 4741:-0.0680971 4748:0.075872131 4749:-0.035569545 4752:-0.089014463 4757:0.34683412 4759:0.041564852 4760:0.41564852 4762:-0.21415253 4763:-0.076174751 4768:0.13860208 4771:0.019364595 4773:-0.13082609 4775:-0.048988458 4776:-0.073482692 4777:0.019171096 4778:0.15144095 4779:-2.5958964e-17 4780:-0.12124532 4781:-0.14459056 4782:-0.019729452 4784:-0.078768089 4785:0.21193744 4787:0.043620057 4792:-2.131905e-17 4795:0.084722444 4796:0.047469985 4798:-0.052607361 4800:-4.6432076e-17 4801:0.25642693 4803:0.0013412968 4804:-0.07117109 4805:0.24826702 4806:-0.24485908 4810:0.25011659 4811:0.2112522 4812:0.038597766 4813:-0.008315824 4817:0.037157714 4818:-1.1234545e-16 4819:-0.24878255 4820:-0.042580862 4822:0.15551782 4823:-0.06427785 4824:-0.010121266 4825:-0.015576287 4826:-0.11150327 4830:0.02867326 4831:-0.062720321 4835:0.0023046057 4839:0.15728843 4841:-0.10070726 4846:-0.025057584 4849:0.062146679 4850:-0.063045219 4853:0.044098061 4855:-0.17319249 4856:-0.17026629 4857:0.083497301 4858:0.078931369 4859:-0.17805986 4867:-0.0013083839 4868:-0.095147558 4870:0.052029546 4871:-0.4406099 4873:-0.0047880867 4880:-0.04158951 4882:-0.096361421 4883:-0.079905607 4884:-0.1059452 4885:0.11608021 4886:0.089178771 4887:-0.011535094 4893:0.12262873 4897:-0.032527436 4900:0.26689664 4901:-1.1449693e-17 4903:-0.042737875 4908:-0.043708812 4909:0.041885786 4911:-0.12789781 4915:0.036903612 4916:-0.058957376 4917:-0.016070703 4923:0.0067127328 4924:0.34578633 4926:-0.032008015 4927:-0.031319056 4928:-0.16001126 4930:0.27891228 4933:-0.018937031 4934:-0.14566027 4935:0.52933079 4938:0.021093296 4939:-0.027657857 4940:-0.057898555 4944:0.16180281 4945:-0.0091032013 4947:0.084544875 4950:-1.442602e-17 4951:-0.023424357 4952:-0.027852107 4954:0.045195512 4955:0.36210781 4958:-0.0052379123 4959:-0.054401185 4960:0.10148692 4962:-0.10715339 4963:-0.10715339 4964:-0.10715339 4965:-0.0024842324 4966:-0.29336339 4968:-1.7491697e-17 4970:-0.099980868 4973:-0.18472008 4976:-0.14852436 4977:0.10602284 4978:-0.029771125 4979:0.081937052 4984:-0.02980371 4985:-0.15288152 4986:-1.0523269e-17 4991:0.0058613434 4992:-1.1557325e-17 4997:0.25710362 5000:-2.558527e-17 5003:-0.11802318 5004:-0.011445417 5005:-0.20568028 5007:-0.02081845 5010:-0.016860988 5012:-0.064320683 5013:0.29769588 5015:-0.48215649 5018:0.0066340948 5020:-3.7009602e-17 5021:0.08601699 5026:-0.092272922 5028:0.24360736 5029:-0.43289986 5030:-0.54241592 5031:-0.032319464 5032:-0.22722103 5034:0.054605722 5035:-0.095217891 5036:0.10414544 5037:-0.021475086 5038:0.019409055 5039:-0.074729718 5045:-0.16604742 5048:-0.12453982 5049:-0.26603267 5050:0.24647392 5051:-0.075183466 5052:-0.02593022 5053:0.049519286 5054:-1.3640581e-17 5055:-0.031777736 5056:0.067192085 5058:0.11941294 5059:0.88500345 5060:-0.053744122 5064:-0.0033737556 5065:-0.0033737556 5067:0.12068419 5069:-0.046121366 5071:-0.040697206 5075:0.097207099 5076:-0.30714637 5079:0.034221038 5080:0.032028113 5081:0.077335328 5082:0.57083195 5084:-0.04699599 5086:-0.072149694 5089:-0.14654849 5090:-0.036637124 5092:0.23300721 5093:-0.19953954 5094:-0.079343066 5097:-1.456222e-17 5099:-0.068695858 5100:0.79505092 5103:0.043806389 5104:-0.026240015 5106:-0.013760232 5107:-0.055517517 5108:-0.036527235 5110:-0.0022117801 5112:0.0074600638 5113:0.47641608 5114:-0.065556034 5118:0.11356262 5119:-0.059766758 5125:0.12495767 5126:-0.054685168 5128:-0.0088708531 5129:-0.2842454 5132:0.25558367 5133:-0.03598237 5134:-0.48301256 5136:-0.47188318 5137:0.090128466 5143:-0.045163546 5146:0.053749152 5147:0.014977105 5148:0.031181486 5149:0.13041091 5150:0.064391054 5151:-0.22290467 5152:-0.10320392 5153:0.32426727 5154:-0.092471793 5156:0.26544634 5157:-0.068042569 5158:-0.073804013 5160:-0.54657888 5162:0.065516181 5163:-0.061920051 5164:0.061171722 5167:0.074949227 5170:-1.0243029e-17 5171:-2.0486058e-17 5172:-7.17012e-17 5173:-1.0243029e-17 5176:-0.080217913 5177:-0.42350182 5178:-0.13422675 5179:0.03041213 5181:0.058511734 5183:0.0051001064 5187:0.37433314 5191:0.019771503 5192:0.11422304 5193:0.22844608 5194:0.095582224 5195:0.014170032 5196:0.095582224 5198:0.070199713 5200:0.35104504 5202:0.3565813 5205:0.35534236 5206:0.014902748 5208:0.0447505 5209:0.24488673 5210:-0.081280589 5211:0.13200922 5212:-0.10471782 5214:-0.065429732 5215:0.35003889 5216:-7.7338859e-17 5217:0.060239352 5218:-0.06248882 5219:0.26628068 5222:0.18708904 5223:-0.3644926 5224:-0.045086551 5226:0.0029622142 5227:0.030031808 5228:0.18492186 5230:-0.037972834 5231:0.03764512 5232:-0.15176925 5233:-0.069875732 5234:-0.020544356 5235:-0.012749172 5237:0.026758812 5240:0.093716115 5241:0.078631662 5242:0.018351262 5243:-0.084091634 5247:0.21409483 5248:0.052478574 5252:-0.025181791 5253:-0.21490018 5254:-0.0083374958 5256:0.10455945 5260:0.059928134 5262:-0.025633637 5263:-0.023322597 5264:-0.10063936 5269:0.0046082768 5270:0.15528691 5272:0.094746143 5279:0.034216791 5280:0.26094228 5291:0.043531451 5292:0.054913588 5293:-0.13468738 5294:0.0088779116 5295:-0.022996604 5296:-0.022926072 5297:0.02608729 5299:-0.048157323 5300:0.032981928 5301:-0.029796319 5302:-0.95050246 5303:0.22956371 5304:-0.0044313967 5306:-0.036992047 5307:-0.0031602315 5318:-0.028803403 5321:-4.12413e-17 5322:0.12034808 5323:0.11773795 5324:-0.047575358 5326:0.012489289 5327:0.02237525 5343:0.22943985 5349:-0.030897602 5350:0.21105935 5352:-0.058986008 5354:-0.080960386 5355:-0.020948688 5357:0.26515117 5359:-0.10529371 5360:-0.10529371 5361:0.16416721 5364:0.073640563 5370:0.055510536 5371:-0.044757824 5375:-0.18731785 5376:0.14059503 5378:-2.5397113e-17 5379:-1.0784176e-17 5380:-2.9476512e-17 5382:-0.04415419 5388:-0.066653579 5390:0.022412084 5392:0.022109123 5393:-0.33661956 5394:0.028987024 5395:0.055155288 5398:-0.064270221 5402:0.072326876 5404:-2.0323159e-17 5406:0.13928641 5408:0.18920797 5409:-0.034126487 5410:0.039042387 5413:-0.018123763 5414:0.38338032 5419:0.23836325 5420:-0.036970049 5421:-0.073165156 5424:0.22712524 5427:-0.26979426 5432:-0.13489713 5433:-0.08098983 5440:0.57872826 5441:0.079448357 5444:0.12330196 5445:0.22960408 5448:0.020792425 5450:0.12678237 5454:-0.42342776 5455:-0.14311896 5457:0.048347458 5458:-0.0845645 5459:0.068774216 5460:0.34798223 5461:0.079412416 5466:-0.039615206 5467:-0.002365404 5468:-0.15910703 5471:-0.096255578 5472:-0.081614159 5473:0.091563776 5474:0.085694931 5475:0.077684648 5477:0.17326504 5478:0.048759777 5480:0.14778049 5481:0.31303537 5482:0.23614064 5483:0.14080377 5484:-0.15767816 5489:0.091894358 5490:-0.48268154 5491:0.073897086 5492:-0.19839224 5493:0.025668429 5494:0.065161772 5497:0.012870696 5502:-0.18200488 5503:0.14699553 5507:-0.23053569 5509:0.0028437909 5512:-0.025739672 5514:0.18487562 5515:-0.28361145 5516:-0.13188238 5522:0.10005158 5526:-0.043761369 5530:0.075097479 5531:0.0088728964 5532:-0.096447155 5534:-0.12946256 5536:0.048182432 5539:-7.2824807e-18 5540:0.030249013 5541:0.090936512 5542:0.2287754 5544:0.10142406 5545:0.0015268349 5548:-1.2759969e-17 5549:-0.067559771 5550:0.20247151 5552:0.040157702 5554:-0.028968304 5555:-0.11990743 5556:-0.04485146 5557:0.014097453 5562:-0.051684875 5563:0.0093329875 5564:0.0093329875 5565:-0.31208295 5569:-0.23671904 5570:-0.13678925 5572:-0.064418964 5573:0.027011104 5575:-0.085992545 5577:0.21692385 5579:0.11982087 5580:0.053846791 5582:0.026872313 5583:-0.070337683 5585:-0.11589777 5588:-0.13330716 5589:0.070481069 5590:-0.045655243 5597:-1.4043181e-17 5598:0.11951745 5599:0.075309783 5600:-0.11352184 5601:0.21454604 5603:-0.13067216 5606:-0.032675683 5607:0.051147342 5615:-0.21633688 5617:-1.1557325e-17 5618:0.040269412 5619:-0.046955969 5620:0.25803468 5621:-0.086424761 5624:-0.2560758 5625:-0.2560758 5629:-0.033442747 5630:-0.13156958 5631:0.41776797 5633:-0.17426698 5634:-0.501513 5635:-0.034853395 5637:0.11074156 5639:0.062054478 5640:0.14587484 5643:-0.0057188431 5644:0.032879874 5645:-0.23471725 5647:-1.1982992e-17 5652:-0.0095580528 5653:0.10377265 5656:-0.019989006 5657:-0.15583831 5658:-0.12767117 5662:-0.077133916 5666:0.07621529 5669:-1.3724892e-17 5673:-0.063711047 5674:0.05532109 5676:0.094625428 5677:0.13605249 5678:0.34428829 5679:0.11240184 5680:-0.066065826 5682:0.24548255 5683:-0.13895811 5685:-0.25426376 5686:0.014937657 5687:-0.036546599 5688:0.10810129 5689:-0.00620064 5693:0.027311325 5697:-0.28515157 5698:-0.01095543 5700:0.064989798 5702:-0.022996604 5705:0.39768171 5709:0.030886535 5710:0.08846201 5711:0.050958928 5712:-1.2284084e-17 5715:-0.098203294 5716:-0.11074828 5719:-0.015406639 5722:-0.1276599 5728:0.065164492 5729:0.01084666 5730:0.20976755 5731:0.14313225 5733:0.0066562127 5734:0.060725648 5735:-0.012347939 5736:-1.0661255e-17 5737:-0.07513202 5738:0.090061985 5739:-0.063266598 5740:0.046632677 5741:0.181555 5743:-0.080151774 5749:-0.1453492 5750:-0.35821062 5752:-0.36238715 5756:0.077094108 5757:0.12473223 5760:0.026397821 5768:0.010160133 5769:-0.11115936 5772:0.032223742 5774:0.068781383 5775:-0.068612702 5777:0.13600883 5782:0.37658051 5784:-0.075922742 5786:-1.1315857e-17 5788:0.29373178 5789:-0.062720321 5791:0.040737018 5792:0.13174832 5793:0.12385097 5794:0.018351262 5795:0.29685661 5796:0.12385097 5797:0.09647353 5798:0.19683212 5799:0.17235756 5800:0.01861869 5801:0.060711339 5802:0.30089536 5803:0.40620419 5804:-0.01440115 5806:0.14342348 5807:-0.078169987 5811:0.1463203 5813:-0.046519257 5815:-0.085593604 5816:0.28421485 5817:-0.022908717 5818:-0.090312451 5819:0.05295809 5821:-1.2643101e-17 5823:-0.21473818 5829:-0.37764472 5830:-0.047853678 5831:0.064823009 5833:0.0029074587 5839:-0.20588259 5840:-0.21114431 5842:0.013850975 5843:-0.069970079 5844:0.083269909 5845:-0.12941004 5846:-0.20539097 5847:0.036556568 5848:0.0031916881 5849:0.015040159 5851:0.21965435 5852:0.094456263 5854:0.030258136 5857:0.28464061 5858:0.30618066 5860:0.050685488 5861:0.19313504 5863:0.3979297 5864:0.095205769 5867:0.13046879 5868:0.12304498 5869:0.43971214 5870:0.066804036 5871:0.053627789 5873:0.37539449 5874:0.079661943 5879:0.086028896 5880:0.041483071 5881:0.071945556 5882:0.013519183 5883:0.015205029 5884:0.053627789 5887:0.32724437 5889:-0.080550097 5893:0.086590722 5894:0.062193472 5895:-2.7735588e-17 5896:-2.7735588e-17 5897:-0.0032394226 5901:0.013988453 5903:0.057389222 5904:0.043991085 5906:0.057117641 5910:0.014552074 5911:0.15074767 5912:0.13257258 5914:-1.2792635e-17 5915:-0.027227288 5916:-0.038403597 5918:0.22541 5919:0.094742477 5921:-0.072731458 5926:-1.5429405e-17 5927:-0.032360163 5929:-0.12124532 5930:0.12288624 5931:-0.10095813 5933:0.059038341 5934:-0.0029954142 5935:0.16729096 5936:-0.20835866 5937:-0.33259669 5938:-0.040219534 5942:-0.041238654 5945:-0.0031602315 5946:0.13889128 5950:-0.045655243 5953:0.21215594 5954:0.15202273 5956:0.2099978 5957:-0.0069923913 5959:0.15391549 5960:0.25593472 5961:0.19846389 5972:0.046831116 5973:-0.079584733 5974:0.1535427 5975:0.035844959 5978:-0.3032665 5981:-0.13592193 5983:-0.024494229 5990:-0.086341143 5991:0.21444505 5992:-0.1187386 5993:0.0057199956 5994:0.26981291 5995:0.2272252 5997:-2.5779616e-17 5998:0.052163824 6000:0.03816092 6005:0.0081756487 6007:-0.11603149 6009:-0.13909258 6013:-0.016615376 6015:-0.090327092 6016:-0.0052230791 6017:0.072373249 6019:0.060497258 6020:0.060497258 6021:-0.039588559 6022:0.1125874 6025:-0.11357173 6028:-4.2840882e-17 6059:0.098037213 6071:0.39944491 6072:-1.1210534e-17 6073:0.079903945 6075:0.5886035 6077:0.049424119 6079:-0.19207454 6080:-0.045591753 6082:0.30882972 6085:-0.038741704 6088:-0.079243228 6091:-1.2643101e-17 6096:0.016085636 6097:-0.066065826 6099:0.055799652 6103:-0.042372756 6104:-0.018000219 6105:-0.11369211 6108:0.087061822 6109:0.01112851 6110:-0.042133316 6111:-0.0058601624 6113:0.012433778 6121:-0.032823529 6125:0.015184532 6126:0.0063881311 6132:0.31774855 6133:-0.33063158 6134:-0.033186253 6136:-0.038477622 6137:-0.27592999 6139:-1.2192464e-17 6140:-0.073265947 6142:-0.0070706098 6146:-0.1663772 6148:0.033316184 6149:0.15661943 6151:-0.087699182 6152:0.028724881 6153:0.069958687 6157:-0.066376753 6158:0.064074323 6160:-0.02743574 6162:0.064128175 6164:0.044444863 6165:0.055343695 6166:-0.028113712 6167:-0.10447904 6170:-0.036637124 6173:0.22645149 6175:-0.06970679 6176:0.29714361 6177:0.011221576 6178:-0.026862523 6186:0.10312089 6191:-0.030832997 6192:0.18104866 6193:0.00067292131 6197:-0.076083489 6198:0.032028113 6199:0.094964623 6202:-0.078986332 6207:-0.090126999 6208:-0.43824005 6213:-0.11939802 6216:-0.064224936 6217:0.018980822 6220:0.030886535 6221:-0.026996611 6222:0.043131322 6223:0.095205769 6225:0.096485443 6226:0.13115764 6227:0.049854212 6229:-0.38528603 6230:0.051821966 6231:0.011281984 6233:0.14435238 6234:0.090031751 6239:-0.027958015 6240:-0.052294858 6242:-0.081669368 6243:-0.013074088 6245:-0.069198355 6248:0.10039607 6249:0.36278251 6250:-0.0052379123 6251:-0.19839224 6252:0.034216791 6253:-0.070376933 6259:0.0091302097 6260:0.029421216 6261:-0.14389148 6263:0.20999888 6266:-0.023833966 6268:-0.010417792 6272:0.051225912 6275:0.028490921 6276:0.092957243 6277:-5.3094242e-17 6278:-0.057157036 6279:0.20281908 6282:0.054582827 6283:0.097686425 6286:-0.076316766 6288:0.01315713 6290:-0.051411122 6292:-0.35634589 6293:-0.092947654 6297:-0.27865732 6299:0.20538424 6302:-0.065630376 6303:-0.0032535049 6305:0.098724604 6307:0.034054361 6309:0.053530332 6311:0.19370438 6317:0.12656794 6318:-0.0021804608 6319:-0.060683157 6321:-0.049578678 6322:-5.513132e-17 6323:-0.060182869 6324:-0.09399198 6327:-0.041244861 6328:-0.059130389 6331:-0.018239766 6334:0.1718293 6335:-0.087364838 6338:-0.0031939724 6339:-0.032791045 6342:0.13209108 6344:-2.1217957e-17 6347:0.53988087 6348:-1.1842922e-17 6351:-1.3640581e-17 6359:0.0033772595 6360:-0.035844076 6362:0.024376212 6363:0.11616741 6366:0.02349929 6367:0.093997158 6368:0.02349929 6369:-0.10752897 6371:-0.16576312 6373:-0.12121543 6375:0.052282102 6377:0.059228729 6381:0.044478491 6382:-0.20580167 6383:-0.015820619 6384:-0.35863549 6389:0.013302359 6391:-0.44581005 6395:-0.043276943 6396:-0.079584733 6397:-5.813561e-17 6399:-9.59475e-18 6401:0.35130653 6402:0.087826632 6404:0.035422981 6409:-0.050939236 6410:-0.088809885 6411:0.047816318 6412:0.038277045 6413:0.064750992 6414:0.024167534 6415:0.018424913 6417:0.17204994 6419:0.79014474 6422:0.15632837 6424:0.016548615 6426:-0.026034372 6428:0.22565189 6437:-2.625099e-17 6438:0.054698065 6441:0.046904918 6451:-0.21359347 6452:0.058362853 6453:0.14523034 6454:0.24425039 6455:0.0058766287 6456:0.0072346693 6457:0.30836725 6460:-0.69352233 6461:-0.03818262 6463:-1.6280648e-17 6468:0.36331794 6469:0.12812999 6470:0.07266359 6471:0.24647392 6473:0.85951644 6475:-0.061244026 6479:0.040737018 6481:0.24647392 6483:0.058329556 6484:0.041649647 6485:0.16892113 6486:0.27414596 6487:-0.10477583 6488:0.19161789 6491:0.033281807 6493:0.32859391 6494:0.31324637 6496:0.10844366 6497:0.29701936 6498:0.57610995 6500:0.00612339 6501:0.096031964 6503:-0.54187477 6504:-0.1806249 6505:-0.019316293 6506:-0.038632587 6507:-1.2792635e-17 6509:-0.18497281 6512:0.11703922 6515:-0.0106451 6516:0.17921798 6523:-0.011890916 6524:0.12679061 6525:0.3888427 6526:0.067829289 6528:-0.025978548 6529:-0.16508727 6530:-0.16508727 6531:-0.061260909 6532:-0.061260909 6535:0.034508593 6537:0.015598035 6538:-0.077265173 6539:0.068781383 6540:0.12690634 6541:0.25381267 6549:-0.15065147 6554:-5.8257821e-17 6556:-0.084604204 6559:-0.033485249 6560:0.063489787 6563:-0.066065826 6564:0.044030786 6565:-0.015374178 6571:-0.057468161 6572:0.16496843 6574:-0.14998236 6584:-0.51949704 6587:-0.17402379 6588:-0.0063369116 6597:0.033590894 6598:-0.13590051 6601:-0.0034097766 6603:0.040848263 6604:-0.032360163 6607:-0.023356423 6614:-0.039084993 6616:0.00263933 6618:0.11616741 6622:0.077041589 6625:-0.10985834 6626:0.043995596 6627:0.10094558 6629:-5.0433745e-17 6632:0.13048165 6633:0.084940024 6634:0.084957182 6635:0.19700281 6638:-0.62612373 6639:0.083889678 6640:0.090119652 6644:0.13108779 6645:-1.845296e-17 6646:-1.845296e-17 6648:-0.2059817 6649:-0.094404675 6650:-0.094404675 6651:-0.1235095 6653:0.14835291 6659:0.10392497 6661:0.093873657 6664:-0.016957577 6666:-0.14311896 6667:0.10224735 6668:0.14297713 6674:0.0063550994 6675:0.015767012 6676:0.037362114 6678:0.22535951 6680:0.17690276 6681:0.34703329 6684:0.10891886 6685:0.12759277 6686:0.086758323 6687:0.12759277 6688:0.38277832 6689:0.76555663 6694:0.12759277 6695:0.42947528 6696:0.22864527 6697:0.015530665 6698:0.18789665 6699:0.16013008 6700:0.16237268 6701:0.30211294 6702:0.1114043 6706:0.10005158 6707:0.0077128783 6708:0.16189831 6709:0.014651127 6710:0.091919385 6712:0.30475649 6713:0.044565871 6715:0.051486574 6717:0.11598337 6718:0.064304613 6719:0.072818801 6720:0.2177234 6728:0.055953518 6730:0.33917302 6731:0.16337517 6732:0.064167671 6733:0.11202575 6734:0.033604462 6735:0.21944432 6736:0.44282919 6737:0.10110125 6738:0.17846651 6741:0.17082962 6742:0.0017674048 6746:0.058582727 6747:0.18273693 6748:0.045149952 6750:0.058717929 6752:0.14346223 6756:0.16473703 6757:-0.03995033 6758:0.085778996 6759:0.20684293 6760:0.32999557 6761:0.079312049 6762:0.38241759 6763:0.17712083 6766:-0.65443718 6767:0.11048769 6768:0.35491651 6770:0.1309101 6773:-0.11531246 6774:-0.086484343 6779:-0.71344841 6782:-0.36678666 6786:-0.47995746 6788:-0.61600268 6793:-0.097659625 6799:0.10084652 6800:0.06487374 6802:-0.075174488 6808:-0.068612702 6810:0.61710978 6811:-0.1562466 6812:-1.1238051e-17 6814:0.067190468 6817:-0.016889555 6823:0.12120349 6827:-0.10699643 6830:0.14251037 6831:0.24692905 6832:0.36503607 6833:0.0083116088 6837:-1.456222e-17 6838:0.084911779 6841:-0.014698111 6845:-0.041683488 6846:-0.043009154 6851:0.041699897 6852:0.069988213 6853:0.087327607 6854:-0.072708607 6855:-0.15582111 6860:-0.06578479 6865:0.21558233 6866:-1.8045551e-17 6868:-0.046910945 6869:-0.068654381 6870:-0.054923505 6872:0.060097244 6875:-0.088570848 6880:0.21994972 6881:0.43989944 6884:0.046311475 6961:-0.17149892 6962:-1.3640581e-17 6963:0.14269325 6966:0.062099811 6967:0.1240847 6977:-0.34478551 6978:0.27851588 6981:-3.0304943e-17 6982:0.032024983 6983:-0.055947632 6984:-0.11359986 6989:-0.05178868 6990:0.095155343 6991:-0.10425831 6992:-0.30148605 6993:0.076409094 6994:0.026645219 6998:-6.9932337e-17 7001:0.069941483 7002:0.034188785 7003:0.085588396 7004:0.10983621 7010:0.32015139 7014:0.080583967 7015:0.24447173 7016:0.11296673 7017:0.36168242 7018:-0.22255659 7020:0.054501042 7021:-0.053890545 7023:0.044564132 7025:0.10592988 7028:-0.26390284 7029:0.21957101 7031:-2.7735588e-17 7033:0.027627368 7034:-0.026862523 7036:-0.16322832 7037:-9.59475e-18 7038:0.30013877 7039:-0.011219559 7040:0.18681641 7041:-0.021475086 7046:-1.2502148e-17 7050:-0.39248419 7052:-0.036263771 7055:-0.028901685 7057:-0.02743574 7058:0.12446546 7060:-0.033729661 7062:-1.2336667e-17 7065:0.0086961724 7066:0.037579332 7073:-0.022139724 7074:0.0029622142 7075:0.07524319 7077:-0.037098806 7078:0.095679894 7079:0.049545456 7080:-0.08988902 7081:0.084589742 7082:-0.47602805 7086:0.015890611 7088:-1.4043181e-17 7090:0.16802663 7094:0.02035933 7095:0.14842246 7096:0.013308356 7102:-0.15571252 7107:0.063412242 7109:-0.36338893 7110:0.24320944 7116:0.057941888 7117:0.17251998 7120:-0.20635742 7122:0.060293034 7123:0.02759371 7125:0.44975099 7126:0.22869836 7127:0.15391697 7129:0.016964277 7131:0.070303366 7132:-0.063756801 7139:-0.29309222 7146:-1.7126242e-17 7148:0.063781835 7150:0.10005158 7151:0.0447505 7158:-0.1010323 7163:0.07524319 7169:-0.12005297 7170:0.006128585 7171:-0.1421227 7173:0.040291984 7175:-0.068982497 7187:0.028390337 7188:0.058436722 7189:-0.017716767 7190:0.00070426427 7192:0.17321941 7193:0.051305171 7199:0.11908501 7206:0.0091302097 7209:0.082966141 7211:-0.084870987 7213:0.017627414 7219:-0.2258267 7222:-0.018005308 7225:0.028781177 7226:0.037304822 7229:0.032815255 7235:0.052664567 7238:0.07165017 7239:-0.038295716 7243:-0.089342639 7244:0.0062446916 7247:0.18783304 7248:-1.3640581e-17 7251:-0.0052379123 7253:0.078121439 7255:0.027810313 7256:0.07369417 7257:0.048792761 7258:0.26751578 7260:-0.099238604 7261:0.04019472 7262:0.084982462 7269:-1.3033513e-17 7274:-2.9476512e-17 7277:0.31276104 7278:0.11599235 7280:0.10789916 7281:0.10118406 7286:0.35806099 7292:-0.1967939 7294:-0.015374178 7297:-0.14000396 7298:0.029144829 7301:-0.25840586 7303:0.35491651 7306:-0.44811895 7309:-3.491177e-17 7316:0.014977105 7319:0.067915104 7320:0.19103162 7321:0.014977105 7322:0.22060257 7323:0.051474188 7324:0.030886535 7325:0.15442257 7327:0.015067581 7328:-0.031594921 7336:0.098866329 7337:0.037362114 7338:0.0028437909 7341:0.02672201 7342:0.098501407 7343:0.078921773 7345:-1.3175977e-17 7348:0.57542479 7349:-0.40371019 7352:0.008390327 7353:0.040755454 7354:0.084293745 7355:0.096753076 7356:0.060091045 7361:0.080563821 7363:-0.011303842 7366:0.44185352 7369:-0.016339367 7370:0.081264831 7373:0.16493019 7374:0.51580989 7375:0.082998 7376:0.16555128 7377:0.060199279 7378:0.36208007 7379:0.042453773 7381:-0.087702394 7386:0.077001095 7388:0.085697271 7389:0.15612131 7390:0.12224914 7392:-0.04699599 7397:-0.23807473 7411:0.021778919 7414:0.35459939 7416:0.084951013 7418:0.044463072 7421:0.55365509 7422:0.055343695 7423:0.14992464 7424:0.3691034 7426:0.082966141 7432:0.089009546 7433:0.6049698 7437:-0.073110491 7439:0.80873156 7440:-0.19883008 7443:-0.096360266 7444:-0.014764627 7448:-0.11477563 7450:0.055850279 7451:-0.41607749 7452:-0.073804013 7457:-0.026605533 7458:-0.11890806 7465:-0.13127327 7468:-0.11484157 7473:-0.045748375 7477:-0.56951672 7481:-0.11484157 7495:-0.18343434 7502:-0.17134582 7503:-0.051411122 7510:-0.36686867 7511:-0.062212106 7514:-0.078487396 7528:-0.057115268 7532:-0.071234874 7535:0.23233482 7537:0.021833902 7539:0.034188785 7540:-0.096879087 7541:0.045543153 7542:0.27606434 7543:-0.056216653 7544:0.044157714 7546:0.046277821 7548:-0.073587328 7549:-0.73587328 7550:-0.3321768 7551:-0.072006196 7554:-0.17252655 7555:0.047244925 7556:-0.076553822 7557:0.029825503 7559:0.19429022 7560:0.088178545 7563:0.019019771 7564:-0.037089624 7565:0.014198869 7571:-0.10165543 7576:-9.1696352e-17 7578:0.033554256 7579:-0.090959124 7580:0.21419163 7582:0.095686391 7585:0.057941888 7586:0.057941888 7587:0.091762908 7588:0.18352582 7589:0.26981884 7590:0.086743087 7591:0.035478298 7592:0.16457449 7598:0.058526587 7600:0.0084625799 7601:-0.1768962 7602:0.41699296 7604:0.073498555 7606:0.14864226 7607:0.037291922 7608:0.41699296 7609:-0.25038579 7610:0.2244211 7612:0.008851422 7613:0.22375605 7614:0.084316134 7615:0.09978871 7616:0.20324159 7617:0.56403512 7618:0.1084227 7619:0.025269249 7621:0.11052527 7623:0.20017862 7624:0.050044656 7625:0.0031916881 7627:-0.074813426 7628:-3.2272792e-17 7634:0.055343695 7635:0.053203922 7637:0.021544082 7638:0.051225912 7639:-0.15552576 7641:-0.091844454 7643:-0.045915112 7644:-0.15229352 7646:-0.045915112 7647:-0.045915112 7654:-0.47012204 7656:0.014547733 7657:-0.10531141 7660:0.014170032 7661:0.019725122 7662:0.032880433 7663:0.43457124 7664:0.24349304 7665:-0.010419996 7667:-0.052465003 7668:-0.027346253 7670:-0.039869346 7674:-0.24732399 7687:0.13693632 7691:-0.079388119 7693:0.48843214 7695:0.040293809 7697:0.013988909 7699:-0.043304138 7701:-0.018131664 7703:0.21090943 7707:0.10627593 7708:0.0517263 7711:0.19284016 7712:0.20728786 7715:0.064257108 7717:-1.1145698e-16 7720:-0.047715303 7721:-0.10014802 7722:0.14611252 7723:-0.014976098 7724:-0.14526264 7726:0.0034759175 7730:-0.58452737 7735:-0.061350942 7736:-0.061350942 7739:0.1014304 7750:-0.033792309 7766:0.17896366 7767:0.015271368 7769:-0.02629517 7770:-0.061884537 7771:0.077127583 7780:0.053037766 7781:0.017952135 7783:0.0038321321 7787:-0.030905267 7793:-0.034970939 7796:0.028117415 7803:-0.033532564 7804:0.014651127 7805:0.32836333 7806:0.16418166 7808:0.032759059 7809:0.032759059 7810:0.58209705 7811:0.58209705 7813:0.22706373 7817:0.32609597 7819:0.061499495 7820:0.16669799 7821:0.068683185 7824:0.16504273 7825:0.54118437 7826:0.14367977 7828:0.083454631 7829:0.013354439 7831:0.23414911 7832:0.19573648 7833:0.076668464 7834:0.39359036 7835:0.23706929 7837:0.062647633 7838:0.076092921 7839:0.030774279 7840:0.30070028 7841:0.21322004 7846:0.13832618 7847:0.10255393 7848:0.0081003411 7849:0.018530229 7850:0.016200682 7853:0.023625175 7854:0.31482333 7855:0.35296041 7857:0.062695459 7859:0.040501706 7860:0.12512469 7863:0.13621069 7865:0.12183864 7867:0.23558666 7868:0.068452261 7869:0.32036611 7870:0.31181797 7871:0.049723476 7872:0.082751498 7874:0.047455292 7875:0.24548937 7876:0.067274146 7877:0.10091121 7882:0.28755656 7885:0.40994015 7889:0.20050767 7892:0.10173204 7893:0.035007622 7894:0.019107571 7895:0.0070015243 7899:0.51578784 7900:0.1441009 7901:0.0090542482 7905:0.33187497 7907:0.43343145 7908:0.29314405 7910:0.21468115 7911:0.10734057 7912:0.082769483 7915:0.047250349 7916:0.22866096 7917:0.030468427 7926:0.093764551 7928:0.12854812 7930:0.061637156 7931:0.046802849 7933:0.12841837 7937:0.20175979 7941:0.24788269 7942:-1.1234284e-17 7945:-0.0055010435 7947:0.015205029 7953:0.012262434 7955:0.12763721 7956:0.019019771 7962:0.014977105 7963:0.0061995811 7964:0.0031916881 7971:-0.35599241 7973:-0.060484987 7976:0.018333014 7980:-0.0055010435 7981:-0.0055010435 7982:-0.088570848 7983:0.11184938 7985:0.014760393 7986:0.013519183 7987:0.12827703 7989:-0.11254244 7990:0.082388617 7991:0.014877089 7993:0.027148245 7997:-0.19105707 7999:-0.05399381 8002:0.055343695 8003:-0.030604605 8108:0.06666211 8109:0.050537925 8110:0.11187999 8111:-0.04768705 8112:0.12910947 8113:-0.41564277 8114:0.061686881 8115:0.11422304 8119:-0.38535497 8122:-0.22128159 8125:0.049756393 8126:0.013631077 8129:-0.012365395 8130:0.043516275 8136:0.27671605 8137:0.11345656 8142:0.43578276 8143:-0.21443151 8145:-0.016791144 8146:0.17781171 8160:0.12685876 8161:0.038764983 8167:-0.054492518 8169:-0.1294245 8170:-0.48779872 8171:-0.12816769 8172:-0.25633538 8180:0.0017044095 8182:0.043734614 8183:0.31770685 8185:0.35012943 8187:0.34882367 8188:0.31800202 8189:0.40378234 8192:0.015244721 8193:0.015244721 8195:-0.14722723 8197:-0.033414569 8198:0.047398672 8199:0.43687469 8201:0.021985287 8202:0.11625779 8204:-1.9134987e-17 8212:-1.1234284e-17 8219:-0.065512463 8220:0.61725354 8223:-0.0060917409 8224:-0.22742708 8226:-0.18049249 8227:0.015927874 8229:-0.37681991 8230:0.040311754 8233:0.043956783 8234:-0.19668852 8235:-0.61282092 8236:-0.023356423 8237:0.0064653875 8241:-0.061260909 8243:0.21497592 8244:0.015271368 8245:-0.13912942 8246:0.11527851 8248:0.0064290026 8249:0.027548594 8250:-0.084756337 8254:-0.071502768 8255:0.06108547 8257:-0.15752232 8260:-0.10465139 8261:0.025529033 8263:0.087305799 8265:0.15940043 8267:0.11307082 8273:-0.075918697 8275:0.07524319 8276:0.15793468 8277:0.61724985 8279:0.088178545 8280:0.041530758 8281:0.020155877 8282:0.036111239 8285:0.05443085 8288:0.12969533 8289:0.05956981 8291:0.045596406 8292:0.10071171 8293:0.09714511 8294:0.043608218 8295:0.10387222 8296:0.10380258 8299:0.088439487 8300:0.32268754 8303:0.049276195 8304:0.40886784 8308:0.067643754 8309:0.078574128 8311:0.11018392 8312:0.023817359 8314:0.061951399 8315:0.080581278 8316:0.080581278 8317:-0.10043432 8319:0.056662928 8324:-0.27193445 8328:-0.47602683 8330:-0.15699565 8332:0.033584267 8339:-0.079760864 8341:0.044564132 8343:0.09714511 8360:0.31465247 8363:0.10351215 8364:0.088057853 8365:0.015127445 8366:0.22683047 8370:0.17060547 8374:0.10016325 8378:0.10488416 8381:-8.8645896e-17 8389:-0.14839378 8396:-0.049464598 8402:-0.14466511 8408:-0.31194726 8409:0.034692824 8410:-0.24261281 8412:0.21500804 8413:0.20086363 8414:-0.075937547 8415:0.23518863 8419:0.043971214 8420:-0.22362509 8421:0.58882236 8422:-0.19429916 8423:0.48629135 8424:0.07904014 8426:0.1656827 8428:-0.033138048 8430:0.11691441 8431:0.066719748 8433:0.073348671 8435:0.22453031 8436:0.10305589 8442:-0.1381388 8443:-0.19160384 8450:-0.18825389 8456:-0.092013747 8470:0.048358697 8472:0.0430163 8473:0.075012103 8474:-0.29418278 8475:0.0086211562 8476:-0.053073335 8477:-0.052488722 8486:-0.068612702 8499:-0.28948411 8500:-0.33488762 8506:-0.034346215 8511:-0.68667525 8514:-0.22161673 8535:-0.3594034 8538:-0.22097665 8543:-0.41271484 8544:-0.41271484 8554:-0.10798762 8557:-0.14413975 8572:-0.11397567 8587:-0.068803541 8600:-0.5590741 8610:-0.18597241 8615:-0.63067317 8622:0.05443085 8625:0.17767137 8635:-0.15067752 8639:-0.57763529 8642:-0.23723687 8645:-1.7923938e-17 8646:-0.15041788 8647:-0.0644648 8651:-0.24974386 8658:0.081034496 8659:0.081064373 8660:-0.17275688 8661:0.020496845 8662:0.10248423 8670:0.10394742 8671:0.012197394 8672:0.037287962 8676:0.23216946 8678:0.11259945 8680:0.33019361 8681:0.0070192902 8683:0.11542591 8684:0.04364682 8686:0.077389821 8687:0.091557011 8688:0.068450458 8689:0.10158981 8691:0.50794905 8694:0.03510204 8695:0.46383813 8696:0.13522282 8698:0.0421707 8699:0.29176232 8700:0.10806144 8701:0.13544987 8702:0.115216 8704:0.38694912 8705:0.44028926 8706:0.058436722 8707:0.089544825 8713:0.045149952 8714:0.077389821 8716:0.17167009 8719:0.13498993 8721:0.041680329 8722:0.11691266 8723:0.070425265 8724:0.27388841 8727:0.12688948 8729:0.1776862 8730:0.25377896 8731:0.046106443 8732:0.070998766 8733:0.051164314 8734:0.062124606 8735:0.047378305 8737:-0.039348923 8738:0.086032599 8743:0.015596049 8744:0.18637383 8745:0.14664569 8747:0.14863636 8748:0.038230095 8749:0.0088219363 8750:0.1369442 8752:-0.23912112 8753:-0.032949183 8756:0.079027109 8758:-0.039209284 8764:0.016364215 8766:0.027865229 8767:-0.35424101 8771:-0.05670562 8783:-0.051411122 8784:-0.051411122 8799:-0.086853854 8806:-0.099830814 8819:-0.010480875 8824:-0.071234874 8832:-0.051411122 8834:-3.8590682e-17 8838:0.27401555 8842:0.3196848 8844:-0.039727941 8846:0.31652707 8847:0.17616066 8851:0.16781998 8854:0.09041737 8856:0.12530319 8857:0.058606558 8858:0.093719333 8864:-0.2177439 8867:-0.056216653 8868:-0.085202344 8871:-0.29892933 8872:0.14374657 8873:0.35936642 8874:0.16209713 8876:0.051501893 8881:0.067878418 8883:0.019695211 8886:0.015512296 8888:0.23658054 8890:0.094889134 8891:0.074529745 8894:0.051821966 8896:0.014505515 8897:0.115216 8898:0.39672598 8901:0.12594748 8902:0.031629711 8904:-0.074221246 8905:0.071400248 8909:0.17216766 8910:0.055939995 8911:0.11426721 8912:0.045109376 8914:0.24438764 8915:-0.36991766 8923:0.028566802 8924:0.013074246 8926:0.0065371231 8928:-0.092904031 8929:0.045658179 8931:0.18608139 8933:0.26877663 8934:0.067194156 8937:0.15317839 8940:0.15317839 8942:0.067933902 8945:-0.43902487 8947:0.14821389 8948:0.10252046 8949:0.010718979 8950:0.071400248 8952:0.079864606 8961:0.026695246 8963:-0.12922555 8964:0.11716545 8966:0.15306164 8969:-0.036828138 8973:-0.12982006 8974:-0.018261127 8975:-0.048959237 8977:0.1714008 8978:0.038265411 8980:0.12194064 8984:0.058617551 8986:0.0029488984 8987:-0.098753795 8988:0.059651565 8995:-0.010107307 8996:-0.028635481 8998:0.022728046 9000:0.042040087 9018:-0.24600521 9041:-0.48905417 9042:-0.023846567 9044:0.10261356 9045:0.40677208 9046:0.19177844 9047:0.33897674 9048:0.15096198 9051:0.33110401 9053:0.19817577 9054:0.30192396 9055:0.54200232 9056:0.30455002 9059:0.39360097 9060:0.45072621 9062:0.68523753 9063:0.27310947 9064:0.33110401 9065:0.20187192 9066:0.53829575 9067:0.11272851 9068:0.33248165 9069:0.27459997 9070:0.11424914 9071:0.22849828 9072:0.10866704 9073:0.17137371 9074:0.50658619 9075:0.18049942 9076:0.20858943 9078:0.3244755 9080:0.26652288 9081:0.3626706 9082:0.35748133 9083:0.4835608 9084:0.53334469 9085:0.27805755 9086:0.20483211 9089:0.20062324 9090:0.35682499 9091:0.20389999 9092:0.20249712 9093:0.12070426 9095:0.12070426 9096:0.085686855 9097:0.055430554 9099:0.24615909 9102:0.21481869 9103:0.027438374 9104:0.30692548 9105:0.053311929 9108:0.44820717 9110:0.23330277 9113:0.12802388 9115:0.12802388 9116:0.19670561 9117:0.15536954 9120:0.18829006 9122:0.35379499 9123:0.25468588 9126:0.27580211 9127:0.19938208 9128:0.41839513 9130:0.3014175 9132:0.49037054 9133:0.4290742 9134:0.34812969 9135:0.074417457 9136:0.27312377 9138:0.25689998 9139:0.33295274 9140:0.053470932 9141:0.084025301 9142:0.1954858 9143:0.1680506 9145:0.10426722 9146:0.3533352 9147:0.47985995 9148:0.27293298 9149:0.25020322 9150:0.021660367 9151:0.27293298 9153:0.19917248 9154:0.24748868 9156:0.30024388 9158:0.031366896 9159:0.15292498 9160:0.34165183 9161:0.55683881 9162:0.10587955 9163:0.075314209 9164:0.13335457 9165:0.13762979 9166:0.22580141 9167:0.018025396 9168:0.22580141 9175:0.29074112 9176:0.48456854 9178:0.1529105 9180:0.56159151 9183:0.063970931 9184:0.29532722 9186:0.14501955 9188:0.17186515 9189:0.26336738 9190:0.26336738 9194:0.15714663 9195:0.41212991 9199:0.10294224 9200:0.37082449 9201:0.20626734 9203:0.34706551 9207:0.031098152 9208:0.75303781 9209:0.45964411 9212:0.045607928 9213:0.073100515 9214:0.09017887 9217:0.13064219 9221:0.32697457 9224:0.0578201 9225:0.63103861 9226:0.11138261 9227:0.22902082 9228:0.23687936 9230:0.27623075 9234:0.29927453 9235:0.22445589 9236:0.39761043 9237:0.18803957 9239:0.27315831 9243:0.12883155 9244:0.17511633 9247:0.077504717 9248:0.31123757 9252:0.46590006 9253:0.3097868 9256:0.20275833 9259:0.50245458 9260:0.46163088 9261:0.2108276 9262:0.64628327 9264:0.25939 9265:0.25939 9268:0.49666667 9269:0.06966199 9271:0.42472279 9273:0.38733998 9274:0.063527726 9275:0.19366999 9276:0.24208753 9277:0.13388024 9278:0.49131685 9279:0.17615496 9280:0.28065312 9282:0.054070875 9283:0.05519332 9284:0.36404812 9290:0.2538093 9291:0.074417457 9292:0.74121064 9366:0.12494709 9368:0.12990734 9370:0.11175212 9371:0.4354023 9372:0.3867687 9373:0.16586865 9374:0.051240563 9381:0.015111707 9383:0.11607271 9384:0.029545937 9387:0.29833531 9388:0.29833531 9389:0.1706945 9391:0.22801565 9393:0.018108496 9394:0.035456382 9395:0.33375409 9405:0.28961113 9408:0.0047879084 9409:0.19451082 9410:0.10436655 9412:0.14526793 9418:0.22304939 9421:0.45603129 9422:0.28341493 9423:0.12767525 9585:0.22917815 9586:-0.068695858 9588:0.10215423 9592:0.4086169 9593:-0.15946333 9594:-0.086981781 9595:-0.10342303 9599:0.52490973 9600:0.49694988 9601:0.10561305 9602:-0.22525905 9604:-0.078294441 9607:0.065732077 9609:0.18661243 9611:0.061436933 9612:-0.13760708 9613:0.038859773 9615:0.033262659 9616:0.13286754 9619:0.90747887 9620:0.088637814 9621:0.037520766 9627:0.31772888 9632:0.29833531 9633:0.61275375 9635:-0.052591447 9637:0.41211504 9638:0.016922053 9639:0.032959413 9641:0.32854465 9648:-0.090686053 9649:0.059544466 9651:0.054888479 9656:0.18081667 9658:0.25289941 9662:0.35919943 9663:0.3282274 9667:0.42190555 9669:0.1085596 9674:0.033109609 9676:0.081380755 9682:0.1755012 9683:0.25613287 9689:0.13902032 9691:-0.088811867 9692:0.053449482 9693:0.12688112 9696:0.077881381 9698:-1.3153032e-16 9708:-0.049994927 9724:-0.10912911 9733:-0.59205568 9734:-0.47728744 9744:-0.41336006 9745:-0.24279299 9752:-0.16253388 9753:-0.16253388 9754:-0.081277311 9766:-0.12537655 9769:-0.24939133 9770:-0.18704349 9772:-0.53254223 9796:-0.62520736 9807:-0.56544077 9814:-0.3534005 9826:-0.323724 9832:-0.13639395 9839:-0.37019792 9842:-0.3166489 9852:-0.12061074 9870:-0.41920117 9882:-0.028974839 9886:-0.028974839 9894:-0.4990592 9899:-0.23800057 9903:-0.46866199 9916:0.092067093 9918:0.31010062 9920:0.11548158 9922:-0.25057617 9924:0.17046693 9925:0.0098474724 9928:0.26479045 9929:-0.037333786 9931:0.20528153 9932:0.049019083 9933:-0.18118772 9934:0.012248885 9935:0.076587096 9936:0.025529033 9938:0.59045106 9939:0.016085636 9942:-0.037333786 9943:0.13492917 9944:0.15029447 #
